SVM-light Version V6.01
0 # kernel type
3 # kernel parameter -d
1.0 # kernel parameter -g
1.0 # kernel parameter -s
0.0 # kernel parameter -r
empty# kernel parameter -u
99 # highest feature index
2000 # number of training documents
1884 # number of support vectors plus 1
-0.07977967769696104 # threshold b, each following line is a SV (starting with alpha*y)
-17.23601242542508 1:0.02307083271443844 4:5.336000467650592E-4 7:0.03503433242440224 9:0.00757255032658577 11:0.009649698622524738 15:0.008545332588255405 19:0.0034237836953252554 23:0.01029948703944683 24:0.047882769256830215 25:0.025543082505464554 27:0.006246677599847317 28:0.005534598138183355 30:0.05143045261502266 31:0.04251678287982941 33:0.02311248704791069 35:0.01632852479815483 36:0.0067629702389240265 37:0.04708192124962807 44:0.014137865975499153 46:0.0031935516744852066 48:0.041585467755794525 49:0.0191139355301857 51:0.03606690838932991 54:0.03813614323735237 55:0.005042460281401873 56:0.004197658505290747 57:8.422915125265718E-4 58:0.009776380844414234 59:0.026850968599319458 61:9.267773129977286E-4 62:0.0074767740443348885 63:0.04810556396842003 67:0.053504928946495056 68:0.045911915600299835 69:0.00141888577491045 70:0.03998803719878197 71:9.415191743755713E-5 76:0.009721511043608189 79:0.0413382463157177 88:0.040962230414152145 89:0.016534164547920227 91:0.020495116710662842 92:0.016314035281538963 94:0.049512069672346115 95:0.031789302825927734 96:0.006392779294401407
-17.23601242542508 1:0.011630626395344734 3:0.0030027003958821297 4:0.009215636178851128 6:0.028866540640592575 7:0.021858660504221916 9:0.018169397488236427 13:4.8048209282569587E-4 17:0.01973854750394821 18:0.0022529123816639185 19:0.006770674604922533 23:0.02386021614074707 24:0.001933310879394412 32:2.7053995290771127E-4 34:0.025966618210077286 35:0.03995839133858681 36:0.03682875260710716 41:0.0027840579859912395 42:0.04309912770986557 43:0.054997414350509644 44:0.061590056866407394 45:0.01197953149676323 47:0.005801978055387735 48:0.005001396872103214 49:0.057715870440006256 50:0.020975610241293907 55:0.005780407227575779 57:0.007042472250759602 58:8.465293212793767E-4 60:3.6871348856948316E-4 61:0.025753729045391083 62:0.0011541254352778196 67:0.02402019128203392 68:0.02337668091058731 70:0.056189265102148056 71:0.046713937073946 73:2.266529481858015E-4 75:0.044826164841651917 76:0.053425826132297516 78:0.01602954976260662 80:0.007312308996915817 81:0.047350455075502396 85:0.03592999652028084 86:0.007258635945618153 88:0.028008032590150833 92:0.006440441124141216 96:0.01828780584037304 97:0.02103361301124096 98:0.007875414565205574
-17.23601242542508 1:1.6879741451703012E-5 2:7.137738284654915E-4 3:0.004955103155225515 4:0.007474211044609547 5:0.0026270337402820587 6:0.02510148473083973 7:0.022535549476742744 8:0.008729434572160244 9:7.883796934038401E-4 10:0.016940271481871605 11:0.016947677358984947 12:0.0038563115522265434 13:0.021246900781989098 14:1.1836367775686085E-4 15:0.001426607952453196 16:0.02048194408416748 17:0.001989617943763733 18:9.618776966817677E-4 19:0.0045102499425411224 20:0.018993861973285675 21:0.0015118145383894444 22:0.00838142354041338 23:0.005395038053393364 24:0.010773423127830029 25:0.010329832322895527 26:0.026492007076740265 27:8.649341179989278E-4 28:0.027451904490590096 29:0.004523728042840958 30:0.018446076661348343 31:0.015497026965022087 32:0.021384119987487793 33:0.006147108506411314 34:0.001915087690576911 35:0.008151850663125515 36:0.005997213535010815 37:0.026253342628479004 38:0.0015207953983917832 39:7.283094455488026E-4 40:0.0013061459176242352 41:0.001492112409323454 42:7.781938766129315E-4 43:0.0016188217559829354 44:0.021465066820383072 45:0.012800466269254684 46:3.0937935662223026E-5 47:0.013916806317865849 48:0.008111725561320782 49:0.003140348708257079 50:0.017611121758818626 51:0.00655029434710741 52:5.280379355099285E-6 53:0.017891239374876022 54:7.618757081218064E-5 55:0.014024247415363789 57:0.004148270469158888 58:0.012120774015784264 59:0.026700712740421295 60:0.008229976519942284 61:0.01210549846291542 62:0.0034993758890777826 63:0.0269740279763937 64:0.0036062519066035748 65:0.0012393781216815114 66:0.009459282271564007 67:0.02239757589995861 68:0.015468898229300976 69:0.01207701861858368 70:0.02715235948562622 71:0.0030570535454899073 72:0.002242049900814891 73:0.01594701036810875 74:0.01703246496617794 75:7.67685764003545E-4 76:0.025784611701965332 77:0.016005925834178925 78:0.025570198893547058 79:0.003911531064659357 80:0.019760696217417717 81:0.0014258833834901452 82:0.006702330429106951 83:0.01423601619899273 84:0.004569543991237879 85:3.095056163147092E-4 86:0.011728533543646336 87:0.025940485298633575 88:2.3378257174044847E-4 89:0.020573977380990982 90:3.975648269261001E-6 91:0.02397569827735424 92:0.007807840593159199 93:0.014008545316755772 94:1.3155033229850233E-4 95:0.017254680395126343 96:2.8887364896945655E-4 97:0.00643156748265028 98:0.0048587750643491745 99:0.02126023732125759
-17.23601242542508 2:0.0013010023394599557 4:0.038060326129198074 5:7.146027928683907E-5 6:0.002389617497101426 7:0.010374887846410275 8:0.03388144448399544 9:0.009650333784520626 10:0.001374949119053781 11:0.0063704922795295715 12:0.009523686021566391 13:0.04422634840011597 14:3.584524674806744E-4 17:0.025112487375736237 18:4.41222102381289E-4 19:0.03625071793794632 21:0.03488646820187569 23:4.188020284345839E-6 25:0.046021632850170135 27:1.8476377590559423E-4 28:3.2559578539803624E-4 29:0.008669269271194935 30:0.01283237710595131 31:2.1057971753180027E-4 33:0.003634924767538905 34:0.022175239399075508 36:0.04535967484116554 37:0.016557760536670685 38:0.015395444817841053 39:0.021205270662903786 40:0.028503555804491043 41:0.02748667448759079 42:0.0014848944265395403 43:0.006359355058521032 44:3.445459879003465E-4 46:2.9400765197351575E-4 47:0.010655507445335388 48:0.027550069615244865 50:0.004413469694554806 51:0.015338223427534103 52:0.005918150767683983 53:2.3193778179120272E-4 54:0.013897774741053581 55:0.002258877968415618 57:0.01530431304126978 58:3.050224393064127E-7 59:5.603334866464138E-4 61:0.0379740409553051 62:0.03565145283937454 65:0.0011644044425338507 66:0.025547988712787628 67:0.0034870882518589497 68:0.002238021930679679 70:0.0078405337408185 73:0.02485675737261772 74:0.03152543678879738 77:0.033251792192459106 80:0.014796797186136246 81:0.007604899816215038 83:0.004803575575351715 85:0.0013025215594097972 86:0.02643386647105217 87:0.004291593097150326 89:0.022198647260665894 93:0.03624678775668144 94:0.01237944234162569 95:0.0032942001707851887 96:0.004930402152240276 97:0.015552666038274765 98:0.03517446666955948
-17.23601242542508 3:0.027032125741243362 4:9.363185381516814E-4 7:0.05782531574368477 9:0.03514890745282173 12:0.07525098323822021 16:0.0020835453178733587 17:0.06405483186244965 18:0.006368418224155903 20:0.001342944917269051 21:2.2544282546732575E-4 22:0.051055584102869034 24:0.027985652908682823 28:0.02894667349755764 29:0.016129307448863983 30:0.030494404956698418 31:0.0629686638712883 35:1.327757445324096E-6 38:0.033033180981874466 45:0.018365127965807915 48:0.02344929613173008 50:0.0050461976788938046 55:0.016635563224554062 62:0.04050783812999725 63:0.029543472453951836 66:0.0024193355347961187 67:0.016425535082817078 70:9.176674939226359E-5 72:0.01896294206380844 77:0.03363356739282608 80:0.02588760294020176 81:0.030002107843756676 85:0.03751341998577118 87:0.028030479326844215 90:0.07602740824222565 92:0.00893461611121893 95:0.0017884366679936647 96:0.053772300481796265 98:0.012079356238245964
17.23601242542508 1:0.009152484126389027 2:0.005664651747792959 4:0.0328950509428978 5:0.018496496602892876 8:0.04012849181890488 11:0.004937868565320969 13:0.035536009818315506 14:0.006818533409386873 18:0.03329716995358467 21:0.019905703142285347 24:0.03961347043514252 25:0.03557116910815239 31:0.007003613747656345 34:0.04834247753024101 35:0.031186357140541077 36:0.026723960414528847 37:0.04373783618211746 38:0.02533537894487381 40:0.030204016715288162 41:0.03349849954247475 42:0.02635752409696579 43:0.018939582630991936 46:0.006218625698238611 48:0.02062317542731762 49:0.009373909793794155 50:0.01449371688067913 53:0.04798271134495735 54:0.034566204994916916 55:0.006928207352757454 57:0.0013773893006145954 58:0.035787876695394516 63:0.04160234332084656 64:0.014271262101829052 70:2.5662315238150768E-5 71:0.012234039604663849 73:0.04133330658078194 74:1.6197831428144127E-5 76:0.03828369453549385 79:0.0010811680695042014 80:1.3604925698018633E-5 81:4.855929291807115E-4 83:0.018890390172600746 85:9.259957005269825E-5 86:0.012190978042781353 87:0.02705245278775692 91:2.5782460579648614E-4 97:0.0023218917194753885 98:0.03662622347474098 99:0.0025226017460227013
17.23601242542508 4:0.03059167042374611 5:8.417092030867934E-4 6:0.002816859632730484 8:0.0025770366191864014 10:0.004893069621175528 11:0.0029562681447714567 15:0.003866070881485939 16:0.04903477802872658 18:0.016101112589240074 22:0.03427087515592575 23:0.02857344038784504 24:0.05211730673909187 25:0.032679483294487 26:0.0015797617379575968 28:5.000938544981182E-4 30:0.051175639033317566 33:0.041991833597421646 36:0.0010342992609366775 38:0.012819405645132065 39:0.016143346205353737 40:0.009605205617845058 42:0.006525634787976742 43:0.0296988096088171 47:0.0036346586421132088 52:0.015994271263480186 54:2.150326909031719E-4 55:0.038334257900714874 56:0.04511371999979019 58:0.024351276457309723 59:0.022598925977945328 60:0.05201764032244682 61:0.029446298256516457 63:0.03567991033196449 64:0.004369272384792566 65:0.02704610303044319 66:0.02393244206905365 67:0.0015464358730241656 68:1.8798002565745264E-4 69:0.011771028861403465 70:0.01848241128027439 72:0.0012656390899792314 73:0.041928935796022415 74:0.0012749368324875832 78:0.014028623700141907 79:0.01015597116202116 80:0.01444218959659338 81:0.0051625133492052555 87:0.043589066714048386 88:0.016152694821357727 89:0.030940651893615723 90:0.003799824509769678 92:0.0010214692447334528 93:9.119966416619718E-4 94:0.005243564490228891 96:0.022966546937823296
-17.23601242542508 4:0.053724657744169235 7:0.014720181003212929 13:0.025126945227384567 18:0.012249716557562351 19:0.02845369651913643 22:0.025954240933060646 23:0.011596930213272572 28:0.05079873651266098 30:0.025147654116153717 35:0.07502314448356628 36:0.014283666387200356 40:0.07464271038770676 41:0.03134993463754654 44:0.04784587398171425 46:0.01711287721991539 49:0.029310548678040504 52:0.023580733686685562 53:0.026013897731900215 55:0.0504039041697979 56:0.011568617075681686 60:0.009117266163229942 65:0.07363591343164444 67:0.024724464863538742 69:0.047696273773908615 73:1.0163822672382139E-8 74:0.009496129117906094 76:0.017646372318267822 80:4.188070015516132E-4 81:0.0458003506064415 82:0.04195205494761467 86:0.003019518917426467 87:0.001664552721194923 94:0.04139456897974014 96:0.03452505171298981
17.23601242542508 1:8.894663769751787E-4 3:0.0019237208180129528 4:0.021084027364850044 5:0.005442653317004442 6:0.007154845632612705 7:0.008680085651576519 9:4.619195533450693E-4 12:0.013230347074568272 13:0.01987791433930397 14:0.00847634021192789 15:0.02371697872877121 16:0.02972431853413582 17:0.015331580303609371 18:0.00338724534958601 19:0.007181547582149506 21:0.0169609896838665 22:0.02254222333431244 24:2.7346325805410743E-4 25:0.0017505255527794361 26:0.009202957153320312 27:0.0042560165748000145 28:4.4256888213567436E-4 29:0.019455082714557648 30:0.008761418052017689 32:0.004786917008459568 33:0.01750897616147995 34:0.021025145426392555 35:0.03391032665967941 36:0.025698347017169 37:0.03414656221866608 39:2.0618532289518043E-5 40:0.006399631034582853 41:0.02889207936823368 42:0.001101877773180604 43:0.009843667969107628 44:0.012836244888603687 46:0.001439146464690566 47:0.03147830069065094 48:4.4976078788749874E-4 49:0.0013568215072154999 50:0.026938414201140404 51:0.003795538330450654 52:0.018799608573317528 53:0.001390351913869381 55:0.003923967480659485 56:0.0069091650657355785 59:1.68960279552266E-4 60:0.011355303227901459 61:8.478438830934465E-4 62:0.010787900537252426 63:0.0012206988176330924 64:0.015474065206944942 65:0.0035881916992366314 66:0.019230008125305176 67:0.010561972856521606 68:0.004635789431631565 70:0.011290923692286015 71:0.02607792615890503 73:0.032563816756010056 74:0.006220907438546419 75:0.00187771231867373 77:0.0026816530153155327 78:2.9177675605751574E-4 79:0.035875704139471054 80:5.324550438672304E-4 81:0.028719918802380562 82:0.0018701532389968634 83:0.0018207470420747995 85:0.012825709767639637 86:0.016905611380934715 87:0.007648805622011423 88:0.02125590480864048 89:0.030976569280028343 90:8.294429280795157E-4 91:3.874571848427877E-5 92:0.029264558106660843 93:0.016238370910286903 94:0.014416588470339775 95:0.0071480595506727695 96:0.0038683349266648293 97:0.03146892040967941 98:4.2552451486699283E-4 99:0.036134716123342514
17.23601242542508 1:0.01922379434108734 2:1.5103013720363379E-4 3:0.0010608528973534703 4:5.503022694028914E-4 5:0.0037960377521812916 6:0.02673780545592308 7:0.006725401617586613 8:0.0021513663232326508 9:0.003958971239626408 10:0.014128555543720722 11:3.9366481360048056E-4 12:0.005074771121144295 13:0.029981369152665138 14:0.0029554031789302826 15:0.02602360025048256 16:3.085014468524605E-4 17:0.004114898387342691 18:0.003361091250553727 19:0.020585354417562485 20:2.665669017005712E-4 21:0.0073746731504797935 22:0.029992708936333656 23:0.021437089890241623 24:0.02299775928258896 25:0.014528374187648296 26:5.302283170749433E-6 27:0.007012204732745886 28:6.637116166530177E-5 29:0.008320825174450874 30:0.011162592098116875 31:6.884150789119303E-4 32:0.004387334920465946 33:0.0010086196707561612 34:9.54487593844533E-4 35:7.268000626936555E-4 36:0.005648219957947731 37:0.02529912255704403 38:3.2792999263620004E-5 39:0.02368129976093769 40:0.0037978054024279118 41:1.940486254170537E-5 42:7.317877025343478E-4 43:1.651216734899208E-4 44:0.003402344649657607 45:0.0012943955371156335 46:0.008113679476082325 47:0.012778048403561115 48:0.017320379614830017 49:0.015096623450517654 50:8.36322084069252E-4 51:0.027664918452501297 52:0.0027581150643527508 53:0.015307337045669556 54:0.006466037593781948 55:0.023041697219014168 56:0.003133445279672742 57:0.0015152802225202322 58:0.002276494400575757 59:0.007065271493047476 60:0.016778351739048958 61:0.023994961753487587 62:0.010517687536776066 63:0.027747200801968575 64:0.016265014186501503 65:0.0012963985791429877 66:0.010941061191260815 67:0.010860798880457878 68:5.697236629202962E-4 69:0.030352791771292686 70:0.018329916521906853 71:0.010216720402240753 72:0.013969829306006432 73:0.014950287528336048 74:0.01591387204825878 75:0.018442707136273384 76:0.011094335466623306 78:0.007131472695618868 79:0.01104742381721735 80:0.01183340698480606 81:0.018214253708720207 82:0.019537441432476044 83:0.01760643534362316 84:0.005411191843450069 85:0.016592681407928467 86:0.017877863720059395 87:0.009033489041030407 88:0.016385184600949287 89:0.0043121641501784325 90:0.02750931680202484 91:0.001446374342776835 92:0.005199634935706854 93:0.02004401385784149 94:0.0045429011806845665 95:0.004174547269940376 96:0.0034182050731033087 97:0.010345700196921825 98:0.0035470540169626474 99:0.002888742135837674
-17.23601242542508 56:0.5342493653297424 86:0.46575063467025757
-17.23601242542508 17:0.17685095965862274 19:0.14172856509685516 22:2.2145283583085984E-4 34:0.6811990141868591
-2.6335664014660685 61:0.15682445466518402 71:0.8431755304336548
-17.23601242542508 71:0.3125963807106018 73:0.6874036192893982
-17.23601242542508 25:0.7343477606773376 27:0.2220495641231537 70:0.043602701276540756
17.23601242542508 7:1.0
10.161476872371686 28:0.9996415376663208 54:3.584548830986023E-4
12.715571835323935 70:1.0
17.23601242542508 1:0.0348273441195488 2:0.010706473141908646 3:0.03263252601027489 4:0.009734722785651684 5:0.03406738117337227 6:0.02590816840529442 7:0.0035356003791093826 8:0.0252065509557724 9:0.0025822885800153017 11:0.00758489640429616 12:0.011505079455673695 13:0.01485298853367567 14:0.00434567965567112 15:0.006484630983322859 16:0.007599659264087677 17:0.029375577345490456 18:0.004846477881073952 19:0.004298952873796225 21:0.004350751638412476 22:0.01820116862654686 24:0.00143234443385154 25:0.006385951768606901 26:0.004995724186301231 27:1.930216239998117E-4 28:0.003650132566690445 29:0.028644507750868797 30:0.013951503671705723 31:0.021707862615585327 32:0.010740156285464764 33:3.3856387017294765E-4 34:0.005563007201999426 35:0.01178822573274374 36:0.01912674307823181 37:0.0026925939600914717 38:0.028825458139181137 40:3.573656431399286E-4 41:0.0016149274306371808 42:0.00697845034301281 43:0.012246581725776196 44:9.284812840633094E-4 45:0.022312268614768982 46:0.025872420519590378 47:0.03074120357632637 48:0.013063421472907066 49:0.027535205706954002 50:3.073411644436419E-4 51:2.7197302551940084E-4 52:0.0019864412024617195 53:0.0069681014865636826 54:2.3425075050909072E-4 56:0.028001543134450912 57:0.004735201131552458 58:0.011620142497122288 60:0.005682454444468021 61:0.003018248826265335 63:6.373894866555929E-4 64:3.675671177916229E-4 65:8.123547013383359E-5 66:0.0013562384992837906 67:0.015202570706605911 69:0.028062529861927032 70:0.025191202759742737 71:0.03361079841852188 72:0.0032147374004125595 73:0.01441181916743517 74:7.046513928798959E-5 75:0.006074683740735054 76:0.013816561549901962 77:0.027964351698756218 78:0.011968826875090599 79:2.8943383949808776E-4 80:0.011538154445588589 81:0.015765059739351273 82:9.067729479284026E-6 83:0.001131741562858224 84:0.019306272268295288 85:0.0016247302992269397 86:0.015133196488022804 87:0.03334590047597885 88:0.0064549739472568035 89:0.02802499383687973 90:0.013071663677692413 91:0.0027088019996881485 92:2.1124898921698332E-5 93:8.623639587312937E-4 94:0.00524010369554162 95:7.691378123126924E-4 97:6.381740095093846E-4 98:0.004875388462096453
-17.23601242542508 1:0.03475542739033699 8:0.08463044464588165 28:0.42322462797164917 70:0.32610851526260376 71:0.031889576464891434 92:0.09939143061637878
-17.23601242542508 11:0.16228315234184265 15:0.19843319058418274 16:0.10357581824064255 37:0.21457050740718842 57:0.01865529827773571 69:0.03802039474248886 70:0.2644616365432739
-17.23601242542508 1:0.029971370473504066 2:0.014318394474685192 3:0.025497131049633026 4:0.03541260212659836 5:0.024167079478502274 6:0.0057680001482367516 7:0.0022116557229310274 8:7.015651790425181E-4 9:0.009136349894106388 10:4.5773846795782447E-4 11:0.00901703629642725 12:0.011011408641934395 13:0.01368247251957655 14:0.0011757996398955584 17:0.0183727890253067 18:0.04081081971526146 19:0.01739080436527729 20:0.028377097100019455 21:0.009600718505680561 22:4.1350757237523794E-4 23:0.0037956240121275187 24:0.0016793855465948582 25:0.03245430812239647 26:0.005845754873007536 28:0.02059953287243843 29:8.269499085145071E-5 30:1.0625089089444373E-5 31:0.027314411476254463 32:0.013818456791341305 33:0.002125765662640333 34:0.01712344028055668 35:1.8970132805407047E-4 36:1.9004442037839908E-6 37:0.009968843311071396 38:0.0027958638966083527 39:0.026929054409265518 40:0.014088105410337448 42:1.0600742098176852E-4 44:0.0029038891661912203 46:0.005203197710216045 47:0.012342295609414577 50:0.003765689441934228 52:0.012895033694803715 53:1.3812586257699877E-4 54:0.027832986786961555 55:5.453025223687291E-4 56:0.008406883105635643 57:6.450821529142559E-4 58:0.013630813919007778 59:0.006910955533385277 60:0.036443356424570084 61:0.017225658521056175 62:0.005957231391221285 63:6.437359843403101E-4 64:0.00490387761965394 65:0.001980808563530445 67:0.02850695513188839 68:2.0051407045684755E-4 69:1.0050766286440194E-4 70:0.013353356160223484 72:0.018520843237638474 73:0.0016736435936763883 74:0.013837350532412529 75:0.008046340197324753 76:2.7912052246392705E-5 77:0.022169269621372223 78:1.812159171095118E-4 79:0.0016498712357133627 80:0.006253574043512344 81:0.03620666638016701 83:0.014121445827186108 84:0.009026829153299332 85:1.0989119618898258E-4 86:0.014857589267194271 87:0.013669504784047604 88:0.01994159258902073 89:0.04138593748211861 90:0.03389611095190048 92:0.008643560111522675 94:0.01017956342548132 95:0.040580179542303085 96:0.0031410616356879473 97:5.3059793572174385E-5 98:2.341818232387549E-11 99:8.669134113006294E-4
-3.3622693505528187 7:0.5109695196151733 27:0.3012600243091583 37:0.06744097173213959 59:0.11591454595327377 93:0.004414946772158146
17.23601242542508 30:0.39156466722488403 32:0.052160922437906265 48:0.044790539890527725 51:0.30169734358787537 59:0.009714100509881973 72:0.20007240772247314
17.23601242542508 1:0.01183230709284544 2:0.018148619681596756 3:0.004654255695641041 4:0.002861201763153076 5:0.04237113147974014 6:0.0266480203717947 7:0.005908396560698748 8:0.043769896030426025 9:0.015296106226742268 11:0.01951410248875618 13:0.016063228249549866 17:0.016061488538980484 21:0.010100333951413631 24:0.007780274376273155 25:0.0386437363922596 26:0.002377779921516776 27:0.019194744527339935 28:0.0022138282656669617 29:0.014393884688615799 30:0.016267986968159676 31:0.011405820026993752 32:0.01555558666586876 33:1.3917811156716198E-4 34:4.0534703293815255E-4 35:0.012297391891479492 36:0.02743547223508358 38:0.003094850108027458 39:1.4912919141352177E-4 40:0.0035067456774413586 42:0.005166864022612572 43:0.011111627332866192 45:0.03806368261575699 47:0.011878504417836666 49:7.19697680324316E-4 50:0.016463568434119225 51:0.00196574698202312 52:0.022098787128925323 54:0.03603530302643776 55:0.005118771456182003 57:0.034856341779232025 58:0.0014166259206831455 60:0.004814215004444122 61:0.02263810858130455 62:0.0368310920894146 64:0.038896236568689346 66:0.01402234099805355 69:0.0038538966327905655 72:0.026012292131781578 74:0.04110446572303772 76:0.027669193223118782 80:0.029523249715566635 82:0.02451198175549507 85:0.03853278234601021 86:7.346366182900965E-4 88:0.028425751253962517 89:4.865448136115447E-5 93:1.8433367949910462E-4 95:0.03637095168232918 98:0.03281591087579727 99:2.3544382202089764E-5
17.23601242542508 26:0.004001852124929428 44:0.15494373440742493 45:0.02858239784836769 47:0.10191250592470169 49:0.2246999740600586 61:0.2025379240512848 68:0.2833216190338135
17.23601242542508 6:0.08569088578224182 11:5.6709061027504504E-5 18:2.597473794594407E-4 26:0.03433043137192726 30:0.10161624848842621 61:0.10096874833106995 65:0.11539667844772339 68:0.08024090528488159 77:0.17606398463249207 78:0.002239358378574252 84:0.2366466522216797 93:0.06648964434862137
17.23601242542508 2:0.10433673113584518 3:0.08669689297676086 31:0.13563032448291779 32:0.05307229608297348 38:1.240944693563506E-4 48:0.025786474347114563 56:0.32980042695999146 80:0.020171476528048515 81:8.669916423968971E-4 83:0.014316661283373833 90:0.029270794242620468 93:0.18476502597332 99:0.015161801129579544
-17.23601242542508 1:0.006147943437099457 2:0.005516720935702324 3:3.719852611538954E-5 4:0.005089784041047096 5:0.013897801749408245 6:0.0018097615102306008 7:0.020413899794220924 8:6.00032159127295E-4 9:9.889888588077156E-7 10:0.004795032553374767 11:0.004513905383646488 12:1.1139099660795182E-4 13:0.009273757226765156 14:0.03318758308887482 15:3.9679399924352765E-4 16:0.0037106371019035578 17:3.251226735301316E-4 18:0.01879461668431759 19:0.002935255179181695 21:0.023684246465563774 22:0.006817383226007223 23:0.015215806663036346 24:0.01701490953564644 25:0.008236626163125038 26:0.01012277603149414 27:0.02932584658265114 28:0.007261522579938173 29:5.801102961413562E-4 30:0.0038511420134454966 31:0.02033151127398014 32:0.019931523129343987 33:0.011314714327454567 34:0.02941380813717842 35:0.001142974360845983 36:6.968866218812764E-4 37:9.192803408950567E-4 38:0.0011549213668331504 39:1.2716408548385516E-7 40:0.01738932356238365 41:0.02385401725769043 42:0.014552636072039604 43:0.015971621498465538 44:0.01949768327176571 45:0.018949732184410095 46:0.0021483658347278833 47:9.593121940270066E-4 48:0.002911387477070093 49:3.5248551284894347E-4 50:0.012882611714303493 51:0.008191284723579884 52:0.03214045241475105 53:0.01906554028391838 55:0.02183796837925911 57:3.8581102853640914E-4 58:0.00880503747612238 59:5.936302477493882E-4 60:0.01593950390815735 62:0.0029578437097370625 63:1.0987342830048874E-4 64:0.002773743122816086 65:0.03280029073357582 66:9.862257866188884E-4 67:0.009391824714839458 68:0.02662936970591545 69:8.927567396312952E-4 70:0.002606010064482689 71:0.016959428787231445 72:0.02597315050661564 73:0.006674809847027063 74:0.019007282331585884 75:3.520492755342275E-4 76:0.0012158553581684828 77:0.0017004255205392838 78:0.009919988922774792 79:0.025194542482495308 80:0.02928878553211689 81:0.025325268507003784 82:0.016164317727088928 83:3.7122492358321324E-5 84:0.030342787504196167 86:0.021259812638163567 87:8.248018275480717E-6 88:0.025046035647392273 89:5.620828596875072E-4 90:0.004759800620377064 91:0.00419223727658391 92:9.146304478235834E-7 93:0.009863991290330887 94:0.011441544629633427 95:0.021012919023633003 96:0.020418159663677216 97:0.004704370629042387 99:0.01442338153719902
-17.23601242542508 26:0.0271054245531559 32:0.053587306290864944 64:0.6074898838996887 67:0.31181734800338745
-13.624885410372883 39:0.11911849677562714 56:0.18600697815418243 60:0.28873211145401 67:0.008179858326911926 68:0.03351100534200668 76:0.34981539845466614 97:0.01463615708053112
-17.23601242542508 8:0.74733567237854 34:0.028282299637794495 49:0.22438201308250427
-3.5872800612604925 1:0.0018363966373726726 2:0.020430797711014748 3:0.002940430771559477 5:0.013524355366826057 10:0.036925263702869415 12:0.023369785398244858 13:0.0697900727391243 14:6.514203851111233E-4 17:0.001958624692633748 19:0.0021368516609072685 21:0.06857313960790634 22:7.653579232282937E-4 26:0.04569476842880249 27:0.0044418396428227425 30:0.006569697055965662 31:0.008456342853605747 33:5.381249357014894E-4 39:0.09655993431806564 41:0.022659076377749443 46:4.010536940768361E-5 50:3.943385308957659E-5 53:0.07669876515865326 59:0.014171947725117207 62:0.04079385846853256 64:0.10585620999336243 65:0.034652113914489746 68:0.06136065348982811 74:1.2111603427911177E-4 78:0.007049188483506441 82:0.05952506139874458 85:0.06875405460596085 86:0.0051809982396662235 87:0.002738801296800375 89:0.032129622995853424 95:1.0515232861507684E-4 97:0.06296063214540482
-17.23601242542508 1:8.050907636061311E-4 2:0.01773703657090664 3:0.01621311716735363 4:0.019726920872926712 5:0.03647370636463165 8:3.0053904629312456E-4 9:6.814301013946533E-4 10:0.014569003134965897 11:4.671073111239821E-5 12:0.024944964796304703 13:0.02696189656853676 15:0.002873706165701151 16:0.006045916583389044 17:0.003932286519557238 18:0.019585786387324333 19:0.012408907525241375 20:1.8740251107374206E-5 21:0.016049573197960854 22:0.024703003466129303 23:1.7316950834356248E-4 24:0.035830892622470856 25:4.1014113230630755E-4 26:2.6802587672136724E-4 29:0.01901896297931671 30:0.0015995064750313759 31:0.0033520166762173176 32:0.019273601472377777 33:0.008171663619577885 35:0.008344079367816448 36:0.03306829556822777 37:0.021685268729925156 38:6.515801651403308E-4 41:0.0011880649253726006 42:0.03547297790646553 43:0.030889010056853294 44:0.024872232228517532 45:0.02970295585691929 46:0.0023333330173045397 47:0.014763531275093555 49:0.021334096789360046 50:0.001627627993002534 52:0.010413318872451782 54:0.012124761007726192 55:0.020197618752717972 56:0.006901195738464594 58:0.01603485457599163 60:0.0244798231869936 62:0.033526331186294556 63:0.009256941266357899 64:0.0064681703224778175 65:0.004354977514594793 67:5.329143277776893E-7 68:0.014853782951831818 69:2.8804317116737366E-4 70:0.023772090673446655 71:0.030320877209305763 75:0.01051254104822874 76:0.01243025902658701 77:0.002867720788344741 78:0.0180903859436512 79:0.01861770823597908 82:1.5822591592495883E-7 83:0.011527768336236477 84:0.0023113812785595655 86:3.097059379797429E-5 87:0.009938969276845455 88:0.0010073044104501605 89:0.002176042180508375 90:0.0124707305803895 91:4.96799242682755E-4 92:0.01686856336891651 93:0.025595730170607567 94:0.023199884220957756 96:0.015142139978706837 97:5.652543040923774E-5 98:0.0352424755692482 99:0.010313255712389946
-17.23601242542508 4:0.12465691566467285 7:0.26612263917922974 8:2.2604198602493852E-4 12:7.140242960304022E-4 19:0.08049705624580383 20:0.03526308014988899 24:0.0014605516334995627 27:5.616178386844695E-4 28:0.15126188099384308 30:0.011013145558536053 49:0.015328504145145416 52:0.028133505955338478 61:0.10449661314487457 63:0.06353700906038284 66:0.020411761477589607 83:0.002934275660663843 84:0.040880896151065826 88:0.05250048264861107
17.23601242542508 27:0.4111018478870392 76:0.3609265089035034 87:0.027295857667922974 92:0.20067577064037323
17.23601242542508 1:0.1803567111492157 23:0.09056118130683899 26:0.23412498831748962 27:0.37189459800720215 39:4.3230419396422803E-4 64:0.04967670887708664 67:0.04568126052618027 72:0.02586216665804386 81:0.0014100708067417145
-17.23601242542508 1:0.012956495396792889 3:0.04373940825462341 6:0.033461034297943115 7:0.01477519515901804 8:0.03596486151218414 9:0.00254768505692482 10:0.029429757967591286 12:0.011592713184654713 13:0.007885205559432507 14:0.004448280204087496 17:0.0034822633024305105 19:0.019396504387259483 21:0.0014853172469884157 23:0.001912626321427524 24:0.008065400645136833 26:4.991601235815324E-5 27:0.02071581594645977 29:0.016736837103962898 30:4.7050678404048085E-4 32:0.008595266379415989 34:0.009176271967589855 37:0.05081677436828613 38:0.023248476907610893 39:0.04046497866511345 40:0.028057727962732315 42:0.006424959748983383 43:0.014127973467111588 46:0.024203544482588768 47:0.029993081465363503 48:0.03017747774720192 49:0.025775941088795662 50:2.467449230607599E-4 51:0.021255383267998695 53:0.047272611409425735 55:0.01816730573773384 56:0.052032001316547394 57:0.05186397582292557 60:2.6198322302661836E-4 61:0.0032817525789141655 62:0.0025872094556689262 63:5.0454342272132635E-5 64:0.031320128589868546 68:0.01081854198127985 69:0.015983842313289642 70:0.005692005157470703 73:2.5739855482243E-4 74:0.020312897861003876 75:0.038711417466402054 78:4.8678790335543454E-4 79:0.017514729872345924 80:0.011823533102869987 81:0.022661225870251656 83:0.008118304423987865 86:0.0015711315209046006 87:0.0075890435837209225 88:9.577019955031574E-5 89:0.009285829961299896 91:5.517686367966235E-4 92:3.6113866372033954E-5 94:0.003774109994992614 95:0.010404731146991253 96:4.663697473006323E-5 97:0.025561939924955368 98:1.843937352532521E-4
17.23601242542508 12:0.45301976799964905 17:0.04183698818087578 69:0.30548256635665894 71:0.11647126078605652 81:0.08318939805030823
17.23601242542508 9:0.3604946732521057 64:0.34804365038871765 69:0.13585922122001648 70:0.04770871251821518 83:0.0505317822098732 85:0.05736195296049118
-17.23601242542508 2:0.0018073547398671508 3:0.03214297816157341 5:0.013617561198771 7:0.01858828030526638 8:0.03254799172282219 10:0.03279653936624527 11:0.025936545804142952 12:0.035225462168455124 13:0.02236151322722435 14:5.385066033340991E-4 15:0.0013353388058021665 17:0.018338989466428757 18:0.010946088470518589 19:0.003588541643694043 21:0.01992061547935009 23:0.0384235605597496 25:0.003967663273215294 27:0.008912787772715092 29:0.00835553091019392 30:0.0245966874063015 31:0.029139649122953415 32:0.023532254621386528 33:1.5736770001240075E-4 34:0.010112733580172062 35:0.010895056650042534 37:0.023275984451174736 39:0.03746332600712776 40:7.987689459696412E-4 41:0.0093076815828681 42:0.0010111494921147823 46:0.0074121966026723385 48:0.012499157339334488 50:0.002857821062207222 52:0.024449774995446205 53:0.014125976711511612 54:0.0013210242614150047 56:0.0038525292184203863 57:0.02642514370381832 59:0.002183465985581279 60:0.011874007061123848 61:0.031935565173625946 62:0.0019381488673388958 63:0.019695943221449852 65:0.017489157617092133 67:0.001792738912627101 68:0.033638909459114075 69:0.025738423690199852 71:0.003725032787770033 72:0.026574168354272842 73:1.842652454797644E-5 74:0.002916646422818303 75:1.9279550178907812E-4 77:6.481042364612222E-4 79:6.8199064116925E-5 81:0.02270023711025715 82:0.01756804995238781 84:0.02357666566967964 85:0.02713930793106556 87:0.03856344521045685 90:0.004007844254374504 91:0.013092908076941967 92:6.682531093247235E-4 93:4.891639691777527E-4 95:0.031237728893756866 96:0.01577192172408104 97:0.03216860070824623
-17.23601242542508 5:0.28103774785995483 15:0.2130359411239624 18:0.07750073820352554 33:0.0195921678096056 41:0.026176242157816887 42:0.013584382832050323 54:0.0023453307803720236 69:0.3644399344921112 95:0.0022875152062624693
-12.227345221757865 48:0.10526052117347717 64:0.1670944094657898 73:0.7276450395584106
-17.23601242542508 32:0.032519225031137466 56:0.011972040869295597 68:0.10139168053865433 69:0.3230861723423004 70:0.31850889325141907 88:0.20828483998775482 92:0.004237168934196234
17.23601242542508 7:0.16772203147411346 19:0.33696475625038147 38:0.3663944602012634 83:0.0077270991168916225 89:0.12119165062904358
17.23601242542508 7:0.26031944155693054 19:0.2609228193759918 35:0.008177988231182098 40:0.06177543103694916 65:1.765122142387554E-4 83:0.1413595974445343 86:0.26720649003982544 98:6.174567533889785E-5
17.23601242542508 7:0.05210765823721886 8:0.14067572355270386 10:0.0173563864082098 16:0.014888658188283443 17:0.14786569774150848 22:0.039488036185503006 31:0.08708350360393524 35:0.006524283904582262 38:0.049675069749355316 42:0.037843089550733566 43:0.16336698830127716 44:0.08098390698432922 46:0.004999355413019657 47:0.04851391538977623 52:0.009014086797833443 54:0.01451678853482008 57:0.0037751183845102787 96:0.08132173120975494
-17.23601242542508 43:1.0
-5.111075638597466 8:0.04436136782169342 21:0.31472623348236084 24:7.701491704210639E-4 37:0.08943257480859756 43:0.4925477206707001 86:0.058161962777376175
-17.23601242542508 1:0.01332786027342081 2:0.014076516963541508 3:0.02604578249156475 4:1.1577773875615094E-5 5:0.009425611235201359 6:0.001996788661926985 7:0.011579095385968685 9:0.001775393495336175 12:0.03005552478134632 13:0.028611019253730774 15:0.006087504327297211 16:0.01391301117837429 17:0.0202740877866745 18:0.006150440778583288 19:0.0072625745087862015 20:0.005970677826553583 21:0.02629835717380047 22:0.003003734862431884 23:0.026035387068986893 25:0.021786805242300034 26:0.013732468709349632 27:0.00512849073857069 28:0.007213209755718708 29:3.432694484217791E-7 30:3.353403144501499E-6 31:0.023492570966482162 32:5.283718928694725E-4 33:0.0032947456929832697 34:0.028006235137581825 35:5.081628332845867E-4 36:0.030141513794660568 37:9.456790285184979E-4 38:0.011690867133438587 39:0.008069504052400589 40:0.02103954739868641 41:0.012036517262458801 42:0.009565729647874832 43:7.103441166691482E-4 44:0.006793792825192213 45:0.0014020727248862386 46:0.00897524505853653 47:0.018919918686151505 48:0.003355266060680151 49:0.011171992868185043 50:9.82757774181664E-4 51:9.774758946150541E-4 52:0.0208624005317688 53:0.0032455173786729574 54:0.03103865496814251 55:0.014107455499470234 56:1.8627059762366116E-4 57:0.020831184461712837 58:0.011206641793251038 59:0.00971919484436512 60:4.059158163727261E-5 61:0.0010223601711913943 62:0.0010766113409772515 63:4.434969159774482E-4 64:4.940655708196573E-5 65:0.019222749397158623 66:0.009051687084138393 67:0.0030682715587317944 68:2.9989247195771895E-5 69:7.071380387060344E-4 70:0.01048679742962122 71:0.02165418677031994 72:0.007050567772239447 74:0.019884556531906128 75:7.302064332179725E-4 76:4.271475972927874E-6 77:0.0015816005179658532 78:0.017972690984606743 79:0.023273300379514694 80:1.2944631635036785E-5 81:0.015830662101507187 82:1.3222298002801836E-4 83:0.008900762535631657 84:0.02328447252511978 85:0.008359011262655258 86:0.024275001138448715 87:0.01678035594522953 89:0.026548702269792557 90:0.018369698897004128 91:0.008380256593227386 92:9.454545215703547E-4 93:0.009397649206221104 94:0.006977493409067392 95:0.0010866363300010562 96:0.016224568709731102 97:0.028290802612900734 98:0.029542088508605957 99:0.005739489570260048
-16.603186844556173 2:0.4245774447917938 13:0.16460880637168884 76:0.21175192296504974 78:0.1990618109703064
17.23601242542508 6:0.003408573567867279 12:0.01826438307762146 18:0.04803520068526268 27:1.4079540960665327E-5 32:0.002854434307664633 35:0.2758690118789673 49:0.029068024829030037 56:0.0051360419020056725 63:0.2541273534297943 64:0.1070227175951004 69:0.15607613325119019 75:2.451696200296283E-4 86:0.09987887740135193
-17.23601242542508 18:0.43978992104530334 35:0.38560160994529724 49:0.02529507875442505 59:0.005054489243775606 84:0.14425891637802124
-17.23601242542508 3:0.02041543833911419 26:0.03435291349887848 28:0.17799609899520874 34:0.08655936270952225 35:0.1627473533153534 41:0.08803273737430573 63:0.2010207623243332 72:0.10164078325033188 79:0.07791262120008469 88:0.004376316908746958 96:0.013152819126844406 97:0.031792789697647095
16.582003380652214 13:0.7348328232765198 27:0.2651671767234802
17.23601242542508 2:0.02760038897395134 3:0.0048712873831391335 4:0.02687332034111023 5:0.024275386705994606 7:8.340433123521507E-4 8:0.05397903919219971 9:5.054770554124843E-6 11:0.01620197668671608 16:0.02020498923957348 17:0.02003961056470871 20:0.066591776907444 22:0.005909775383770466 25:0.010701669380068779 27:0.06627450883388519 31:0.05954445153474808 32:0.0014650829834863544 33:0.003301819320768118 37:0.07349511235952377 38:0.003955091815441847 41:0.016320304945111275 44:1.8469843780621886E-5 45:0.026362836360931396 51:0.0029782704077661037 57:0.028032705187797546 58:0.033471159636974335 65:1.3446036609821022E-4 70:0.01585027202963829 71:0.04036945477128029 73:0.033634111285209656 76:3.5222659789724275E-5 79:0.04050383344292641 80:0.032492056488990784 81:0.0027232985012233257 82:0.012461966834962368 84:0.0492890365421772 86:0.0019945157691836357 90:0.06777025014162064 92:0.016497179865837097 96:0.029112335294485092 98:0.007386853918433189 99:0.056437019258737564
-11.957763289922264 43:0.3236100673675537 66:0.15265537798404694 92:0.5217342972755432 95:0.002000262727960944
17.23601242542508 33:0.07192548364400864 51:1.444591471226886E-4 56:0.9279300570487976
4.494916608012008 28:0.007358630653470755 50:0.17469272017478943 88:0.2613084316253662 94:0.5566402077674866
17.23601242542508 2:0.07980962842702866 5:0.028290849179029465 17:0.059246696531772614 34:0.053937267512083054 35:0.005210144445300102 38:0.008679904043674469 53:0.203082874417305 56:0.01420427206903696 68:0.0336235910654068 81:0.13584502041339874 84:5.470901960507035E-4 85:0.009239817038178444 88:0.015953248366713524 94:0.1507037878036499 97:0.20162580907344818
17.23601242542508 60:0.6190698146820068 76:0.005551599897444248 97:0.3753786087036133
-17.23601242542508 32:0.14482836425304413 71:0.10713143646717072 76:0.7480401992797852
-17.23601242542508 10:0.10691213607788086 13:0.035316407680511475 19:0.06213587149977684 20:0.0880676656961441 28:0.014998311176896095 29:0.0010209647007286549 38:0.0702262818813324 39:0.006962426472455263 46:0.12172416597604752 50:3.1786898034624755E-4 51:0.10980391502380371 63:0.013093818910419941 64:0.04240670055150986 65:0.03172977641224861 70:0.07787536084651947 77:0.0680670365691185 80:0.03372730314731598 88:0.01811329275369644 91:0.09208384156227112 95:0.00541685102507472
-17.23601242542508 7:0.02024661935865879 56:0.01970437914133072 81:0.9323056936264038 94:0.027743292972445488
-17.23601242542508 14:0.21770723164081573 77:0.050227563828229904 83:0.12179548293352127 91:0.5752395987510681 97:0.03503011539578438
-17.23601242542508 1:0.04274431988596916 17:0.017317723482847214 21:0.042122192680835724 22:0.007792836055159569 33:0.04443524405360222 41:0.005847165361046791 52:0.16003692150115967 53:0.041813455522060394 58:0.018448589369654655 68:0.12521463632583618 70:0.14705906808376312 73:0.1374937891960144 81:0.00837862677872181 84:0.0012035222025588155 87:2.9972614720463753E-4 90:0.044309504330158234 97:0.155482679605484
17.23601242542508 7:0.17090806365013123 39:0.21329355239868164 43:0.2703360915184021 67:0.12867988646030426 69:0.21666136384010315 90:1.2102364416932687E-4
17.23601242542508 21:0.23611010611057281 25:0.06340206414461136 75:0.7004878520965576
-17.23601242542508 75:1.0
-17.23601242542508 7:1.0
-11.689349902289505 40:1.0
17.23601242542508 1:0.03288060054183006 2:0.021035272628068924 3:2.0003382815048099E-4 5:0.014265824109315872 6:1.8203862418886274E-4 7:0.0015066416235640645 8:0.03573686629533768 10:0.013316639699041843 11:0.0373384952545166 12:0.00523467268794775 15:0.022802220657467842 16:0.03540899232029915 20:0.03585313260555267 21:0.024178162217140198 23:0.00432683015242219 24:0.04228741303086281 25:0.018945906311273575 26:0.0024807399604469538 27:0.007549768779426813 31:0.008540340699255466 32:4.976649070158601E-4 33:0.009040886536240578 34:0.008087454363703728 35:0.007439128123223782 36:0.036742500960826874 39:0.03868450969457626 42:0.001054946449585259 44:0.012080774642527103 48:0.0024044301826506853 49:0.02405795082449913 50:0.03878023475408554 51:0.0440361425280571 52:0.03699617460370064 53:0.00927534606307745 54:0.026548976078629494 55:5.39369648322463E-4 56:5.484906723722816E-4 57:0.009699778631329536 60:0.0125753004103899 61:0.008188302628695965 62:0.008663452230393887 63:0.03326200693845749 65:0.03180655464529991 66:0.0018535519484430552 70:1.3455697626341134E-4 71:0.020749326795339584 74:0.00455264188349247 75:0.027507172897458076 76:0.011289332993328571 77:0.00826590321958065 78:0.007021276280283928 79:5.094515508972108E-4 81:2.1295823898981325E-5 82:0.007462487556040287 83:0.009014645591378212 84:0.008275369182229042 85:0.008118596859276295 86:0.02090858481824398 88:0.03169749304652214 89:0.003375890664756298 91:0.01944376714527607 93:0.02111070789396763 94:0.004251233767718077 95:3.218877100152895E-5 96:0.015266329050064087 98:0.00405722763389349
17.23601242542508 18:0.05932862311601639 34:0.4676327705383301 52:0.2565465569496155 84:0.14101380109786987 89:0.07547824084758759
17.23601242542508 32:0.2084137499332428 52:0.5964975953102112 59:0.09141882508993149 67:0.10366982966661453
17.23601242542508 2:0.22347724437713623 44:0.013056106865406036 46:0.021737398579716682 61:5.2292016334831715E-5 76:0.20856517553329468 83:0.041955605149269104 95:0.4911561906337738
-17.23601242542508 28:0.2497466504573822 30:0.038933929055929184 35:0.0287510734051466 37:0.021357739344239235 63:0.009046847000718117 76:0.4801788330078125 79:0.14630192518234253 91:0.02568298950791359
17.23601242542508 1:0.009922823868691921 2:0.0027685947716236115 3:6.922140869392024E-7 4:4.0771119529381394E-5 5:0.0060829054564237595 6:0.019675347954034805 8:5.03055052831769E-4 9:0.006695625837892294 10:3.007766790688038E-4 11:0.015050111338496208 12:0.004627677146345377 13:0.002643318148329854 14:0.0027597974985837936 15:0.034637123346328735 16:0.004325654823333025 17:2.2483298380393535E-4 18:0.011999651789665222 19:0.011229549534618855 20:0.018440352752804756 22:0.003061730647459626 23:0.026381375268101692 24:2.565487811807543E-4 25:0.00899601262062788 26:0.016530366614460945 27:0.01918775588274002 28:0.00514191621914506 29:1.011111235129647E-4 30:0.015926487743854523 31:0.03135867044329643 32:0.008823614567518234 33:2.8614516486413777E-4 34:0.005730690434575081 35:0.021079955622553825 36:0.019899845123291016 37:0.033692240715026855 38:0.012689510360360146 39:2.2142221860121936E-4 40:1.6783717728685588E-4 41:0.005285977385938168 42:0.014842635951936245 43:0.035511188209056854 44:5.5891934607643634E-5 45:0.035996466875076294 46:0.017095623537898064 47:0.012356298975646496 48:0.03178863227367401 49:0.01829243265092373 50:0.010179686360061169 52:0.03398991748690605 53:6.51989714242518E-4 55:0.010560802184045315 56:0.030560744926333427 57:7.379555609077215E-4 58:5.922781419940293E-4 59:0.022291110828518867 61:0.00898617785423994 62:0.012632912956178188 63:0.003434969810768962 64:0.010736261494457722 65:0.0046745422296226025 66:4.508154597715475E-5 67:0.0065453085117042065 68:0.002075333846732974 69:0.031362712383270264 70:0.027765121310949326 71:0.0025491926353424788 72:0.006285666488111019 73:0.03472983092069626 74:0.0028895807918161154 75:3.190761219684646E-7 76:9.01916588190943E-4 77:0.0320700965821743 78:0.006487554404884577 79:0.017592402175068855 81:0.0038397538010030985 82:8.876952779246494E-5 84:0.001467265421524644 85:0.002124605467543006 86:1.0437918535899371E-4 87:0.02030523493885994 88:0.008411562070250511 89:0.0016192935872823 90:9.412264917045832E-4 91:0.0283457450568676 92:9.883132297545671E-4 93:0.0018286713166162372 94:0.00541454553604126 95:0.012180306017398834 97:0.016205517575144768 98:0.022118300199508667
17.23601242542508 7:0.007321379147469997 37:0.14876896142959595 41:0.0066427444107830524 64:0.0163478571921587 72:0.058811116963624954 75:0.4988032281398773 81:0.26317399740219116 96:1.3071186549495906E-4
-17.23601242542508 43:1.0
17.23601242542508 8:0.08066362887620926 71:0.47018033266067505 79:0.4491560459136963
17.23601242542508 5:0.022772546857595444 6:0.010775113478302956 25:0.18584589660167694 29:0.07583100348711014 41:0.07674626260995865 55:0.1616487056016922 60:0.053714897483587265 64:0.09932716190814972 66:0.16952410340309143 80:0.05671389400959015 98:0.08427433669567108 99:0.002826067851856351
-17.23601242542508 23:0.3494386672973633 27:0.07519032806158066 49:0.4816056489944458 55:0.05263080447912216 79:0.0411345548927784
17.23601242542508 41:1.0
17.23601242542508 2:0.0202176570892334 3:0.03947936370968819 4:4.496110250329366E-6 5:0.010324795730412006 6:0.035880040377378464 8:0.042600344866514206 9:0.008686757646501064 13:0.023279789835214615 15:0.017274608835577965 17:0.023289458826184273 18:0.01641504280269146 19:0.0025602937676012516 20:0.018453290686011314 21:0.0015900442376732826 23:0.002598751336336136 25:0.04000430926680565 26:0.007750093005597591 27:0.0012844945304095745 28:0.0010081559885293245 29:0.001902119955047965 32:0.013957089744508266 33:0.016610359773039818 34:0.022555746138095856 35:0.009535831399261951 36:0.0033581508323550224 38:0.021652773022651672 39:8.851291495375335E-4 43:0.007930933497846127 45:4.1003592195920646E-4 47:0.04814011603593826 48:0.033986616879701614 49:0.02593984641134739 50:0.026850873604416847 51:0.041696660220623016 52:0.01708352006971836 54:7.426551019307226E-5 55:0.021204151213169098 58:0.03341846913099289 59:0.02657509781420231 60:0.024188565090298653 61:0.007332486100494862 64:0.012732191942632198 65:0.0242320504039526 70:8.781400392763317E-4 71:3.3388318843208253E-4 72:0.047823067754507065 73:0.011746816337108612 75:0.006599624641239643 77:7.436308078467846E-4 79:4.6846148325130343E-4 80:0.033952366560697556 85:0.025237416848540306 91:0.04243644326925278 93:0.024940980598330498 94:0.018335675820708275 95:0.013344493694603443 96:7.47532831155695E-5 97:0.005250973626971245 98:0.012878404930233955
17.23601242542508 43:1.0
17.23601242542508 8:0.13583239912986755 29:0.035325370728969574 66:0.14640504121780396 73:0.29526638984680176 84:0.05340540409088135 86:0.06327491253614426 91:0.26769372820854187 95:0.002796744229272008
17.23601242542508 43:0.9320853352546692 73:0.0679146870970726
17.23601242542508 6:0.04341499134898186 36:0.05667111650109291 41:0.013920373283326626 42:1.629864527785685E-6 45:0.025763265788555145 53:0.3115275502204895 65:0.04174114763736725 88:0.23508620262145996 89:0.062240418046712875 92:0.0966198742389679 96:0.07471083104610443 98:0.03830259293317795
-17.23601242542508 7:0.21385394036769867 29:0.014409258030354977 44:0.01793285831809044 51:0.0011881447862833738 52:0.01638084091246128 55:0.031780414283275604 63:0.14102336764335632 66:0.015635577961802483 68:0.11533588171005249 69:0.014441482722759247 74:0.008188008330762386 79:0.09697595238685608 93:0.23729707300662994 94:0.04038621485233307 96:0.033204417675733566 97:0.001966562122106552
-17.23601242542508 3:0.030466768890619278 9:0.00134227832313627 15:3.734046913450584E-5 20:7.21962805982912E-6 22:0.014048178680241108 27:0.054164666682481766 29:8.007092401385307E-4 32:0.004594485275447369 35:0.009070116095244884 37:0.014096724800765514 38:0.02617151103913784 39:0.003069767029955983 40:0.05103183537721634 41:0.06045233830809593 42:0.012582609429955482 43:2.5333307348773815E-5 46:0.018225105479359627 54:2.5080284103751183E-5 55:0.06309498101472855 57:0.031286630779504776 65:0.01424524188041687 68:0.01400299184024334 70:0.009480117820203304 71:0.0716681182384491 72:0.02452290803194046 74:0.00895992387086153 76:0.007212083321064711 78:0.03963014483451843 79:0.03001164086163044 80:0.05506502464413643 85:0.07586627453565598 87:0.046312831342220306 88:0.058793459087610245 93:0.027699531987309456 94:0.05615875869989395 97:0.05155296251177788 98:0.013685904443264008 99:5.383934476412833E-4
-11.358196247447678 19:0.7176406979560852 46:0.012203815393149853 54:0.024134965613484383 92:0.003534196875989437 93:0.24248629808425903
-17.23601242542508 19:0.0025208909064531326 34:0.006452551577240229 39:0.038286495953798294 41:0.02951919287443161 55:0.21969269216060638 63:0.3132626712322235 68:0.02358368970453739 80:0.28220853209495544 86:0.08447330445051193
17.23601242542508 1:0.03982940688729286 4:0.1153842881321907 14:0.635754406452179 67:0.010597482323646545 90:0.19843444228172302
-16.92947596311598 13:8.161407458828762E-5 27:0.16838429868221283 41:0.01041045319288969 61:0.4986138939857483 89:0.322509765625
-17.23601242542508 5:0.014094892889261246 38:0.02722947485744953 45:0.15572437644004822 46:0.09859088063240051 49:0.002640531398355961 54:0.011390932835638523 57:0.199545219540596 66:0.1492251306772232 71:0.03218052536249161 89:0.08029058575630188 90:0.17214079201221466 93:0.05694665387272835
17.23601242542508 1:0.04974280297756195 2:0.1115093007683754 4:1.1557525567695848E-6 12:0.0018521043239161372 19:0.054952472448349 51:0.02476315014064312 52:0.09525278210639954 55:0.0879269614815712 56:0.009359398856759071 63:0.12355450540781021 64:0.17647673189640045 76:0.06551771610975266 81:0.10478890687227249 82:0.0644477903842926 83:0.008371343836188316 90:0.0012689329450950027 91:0.020213941112160683
17.23601242542508 2:0.01043387409299612 4:0.008090919815003872 6:0.024575330317020416 9:0.0014331100974231958 11:1.789536327123642E-5 14:0.048303015530109406 16:1.4659542648587376E-4 17:0.04361385852098465 18:7.108735735528171E-5 19:0.020263444632291794 22:0.0012891831574961543 26:0.0038595872465521097 32:0.09186910837888718 35:0.020907269790768623 37:0.08453032374382019 38:0.011285540647804737 40:0.03554399311542511 47:9.874739916995168E-4 48:0.013444487005472183 49:6.851915386505425E-4 51:0.012131476774811745 53:0.07412739843130112 55:0.0043568722903728485 57:0.008945506997406483 63:0.09414020925760269 66:0.0783812552690506 67:0.054269496351480484 69:0.01932390406727791 71:0.016814550384879112 73:0.02288605086505413 74:0.010263217613101006 76:0.03109811060130596 78:0.00742122670635581 85:0.03967701643705368 89:0.0016104194801300764 90:0.005183047614991665 91:0.05784958228468895 94:2.761889190878719E-4 97:0.03677693381905556 99:0.0031162623781710863
-17.23601242542508 7:0.012634972110390663 10:0.07633204758167267 15:0.1498856395483017 31:0.2104887217283249 35:0.11114048212766647 42:0.07931683957576752 65:0.024899797514081 75:0.18372823297977448 87:0.1515732705593109
17.23601242542508 34:0.18933740258216858 35:0.15624985098838806 38:5.433887708932161E-4 39:0.09450604021549225 55:0.0526670441031456 61:0.008191850036382675 73:0.018646573647856712 77:0.08682398498058319 78:0.022507479414343834 90:0.1371299773454666 93:0.034663256257772446 94:0.1987331509590149
17.23601242542508 1:0.043996356427669525 2:0.008937726728618145 4:0.12235109508037567 17:0.023412439972162247 22:0.2652021646499634 37:0.13827908039093018 65:0.029112335294485092 73:0.05225106701254845 74:0.035122282803058624 76:0.03111446462571621 78:0.13783660531044006 81:0.09865623712539673 94:0.013728156685829163
-17.23601242542508 1:6.334187928587198E-4 2:0.011764993891119957 4:0.027051227167248726 7:0.027688339352607727 9:0.012249286286532879 10:0.03458496555685997 12:0.042204637080430984 13:0.0013113521272316575 14:6.895479164086282E-4 15:5.918635361013003E-5 17:0.004251777660101652 18:0.005579885561019182 19:0.004251164849847555 21:1.5324208652600646E-4 22:4.7955624177120626E-4 24:0.029092062264680862 25:0.03957522287964821 26:0.024431424215435982 27:0.03800555318593979 29:0.0037304642610251904 30:0.04507584497332573 33:0.021156717091798782 34:9.150413097813725E-5 35:0.003248669905588031 36:0.007712877355515957 37:0.02935006096959114 38:0.009474287740886211 39:0.001805875333957374 43:0.009315209463238716 44:0.0413307249546051 45:0.03535491228103638 49:0.037674836814403534 50:0.0014385465765371919 51:0.0373927466571331 53:0.02974967658519745 56:0.008036568760871887 58:0.036531563848257065 60:3.231660812161863E-4 61:0.007474988233298063 62:6.875676335766912E-4 63:0.03155691921710968 66:0.002469786908477545 68:0.02657511457800865 70:0.023746738210320473 72:0.013709121383726597 73:0.03650346398353577 74:0.00879084412008524 79:0.0013912529684603214 80:0.009242990054190159 83:1.5468084893655032E-4 84:0.008817833848297596 85:0.018298452720046043 86:0.014299771748483181 90:0.010964186862111092 91:0.00958259031176567 92:0.00512916361913085 95:0.04860464110970497 96:0.0488082617521286 98:0.0011558689875528216 99:0.009184655733406544
-2.8200669191811727 25:0.005832930561155081 95:0.9941670894622803
-10.99719316855064 3:0.00877358391880989 9:0.03877352550625801 17:0.05086702108383179 18:0.006150528322905302 23:0.10019891709089279 26:0.13428932428359985 34:0.12018243223428726 36:0.06287507712841034 56:0.09996691346168518 65:0.04684070125222206 82:0.13962776958942413 90:0.0741075798869133 94:0.09966699779033661 96:0.017679637297987938
-17.23601242542508 9:0.310986191034317 23:0.2313913255929947 30:0.05464479699730873 43:0.025745848193764687 65:0.02135568857192993 98:0.3558761477470398
-17.23601242542508 4:0.0018032744992524385 22:0.6045024991035461 31:0.16595757007598877 53:0.0011880098609253764 62:0.10517419874668121 96:0.1213744729757309
17.23601242542508 35:0.478149950504303 71:0.521850049495697
17.23601242542508 1:7.416964508593082E-4 3:0.02218666300177574 7:9.874528586806264E-6 9:0.041635338217020035 14:0.014301282353699207 16:0.0044553400948643684 18:0.007506906520575285 25:9.585194056853652E-4 27:0.0562288723886013 28:0.0030797175131738186 29:0.0046576340682804585 31:0.01864858902990818 35:0.08594316989183426 36:0.03682919964194298 38:9.202781948260963E-4 39:0.0011554856318980455 41:0.00336459930986166 44:4.8175014671869576E-4 48:0.04780532792210579 49:0.0019484437070786953 55:0.05327945947647095 57:5.00872207339853E-4 59:0.040073513984680176 62:7.562207756564021E-4 63:0.022094571962952614 64:0.01077297329902649 66:0.002350368071347475 72:0.0791972354054451 75:0.011511442251503468 76:0.010633940808475018 78:0.07227268815040588 81:0.03892083838582039 84:0.07964084297418594 87:0.0031390630174428225 88:0.008131973445415497 90:0.08045606315135956 95:0.08262176811695099 97:0.03246467560529709 99:0.018322808668017387
-17.23601242542508 34:0.057939231395721436 46:0.06886491924524307 55:0.6280989050865173 69:0.24509692192077637
-17.23601242542508 1:0.06310395896434784 12:0.175400048494339 14:0.020714709535241127 25:0.08787381649017334 30:0.0988013967871666 35:7.930496212793514E-5 54:0.053986743092536926 62:0.1624779999256134 63:0.17089839279651642 73:6.436097319237888E-4 91:3.407720651011914E-4 97:0.16567924618721008
-17.23601242542508 3:0.6507980823516846 77:0.3449496328830719 94:0.004252255894243717
-1.3484516567123839 4:0.017938703298568726 12:0.007385986391454935 34:0.008866937831044197 35:0.01093878224492073 39:0.204866424202919 49:0.005046805366873741 54:0.00595242902636528 57:0.015107313171029091 75:0.15729759633541107 77:0.20029358565807343 81:0.13289760053157806 88:0.03465360403060913 97:0.1987542361021042
-14.830286981003777 13:0.05542124807834625 17:0.27442505955696106 19:0.02494669146835804 53:0.11226826906204224 56:0.27161774039268494 66:0.17417126893997192 95:0.08714970201253891
17.23601242542508 5:0.295621395111084 20:0.008938278071582317 52:1.9854264974128455E-4 57:0.2495349496603012 59:0.14324399828910828 61:0.14059199392795563 73:0.05718168988823891 80:0.0612914115190506 83:0.012239225208759308 89:0.010139203630387783 95:0.003629001323133707 99:0.01739029958844185
15.83841061652042 13:0.0033557943534106016 15:0.06559210270643234 28:0.09480638056993484 33:1.2467535270843655E-4 34:6.675153417745605E-5 47:0.005491812247782946 55:0.1209847554564476 58:0.01098422147333622 68:0.02678983472287655 80:0.46711745858192444 84:0.03218838945031166 93:0.17249783873558044
17.23601242542508 1:0.03344845026731491 7:0.16333574056625366 17:0.23401279747486115 30:7.300853612832725E-4 39:0.10398123413324356 55:0.039324063807725906 59:0.08647271990776062 61:0.23847390711307526 69:0.05426188185811043 74:0.028587907552719116 84:0.017371222376823425
17.23601242542508 8:0.1656702309846878 14:7.637589005753398E-4 17:0.10257338732481003 23:0.03722107782959938 25:0.11530867218971252 27:0.006176093127578497 30:0.10513395816087723 33:0.06355636566877365 41:0.0658966600894928 48:0.06747222691774368 53:4.179974494036287E-4 62:0.08290805667638779 71:0.0407714881002903 79:0.11428352445363998 86:0.03157608211040497 89:2.704103826545179E-4
17.23601242542508 3:0.1300068199634552 40:0.25630512833595276 76:0.25445666909217834 81:0.016216056421399117 86:0.21667058765888214 89:0.006678110454231501 91:0.015326515771448612 94:0.10434010624885559
-17.23601242542508 1:0.09911701083183289 7:0.0528218075633049 19:0.06322962790727615 24:0.03297344967722893 26:0.04487635940313339 28:0.04168934375047684 29:0.11220205575227737 34:0.11859055608510971 39:0.0023691407404839993 44:0.0629357248544693 47:0.003204136388376355 48:0.008904507383704185 58:0.07219431549310684 63:0.019679468125104904 68:0.001735033350996673 77:0.08425617218017578 79:0.009624446742236614 82:0.007314457558095455 83:0.09793189913034439 89:0.05653293430805206 93:0.007817543111741543
-17.23601242542508 25:0.08952615410089493 28:0.008487456478178501 30:0.02859366126358509 35:0.07920985668897629 37:0.07364710420370102 46:0.007915622554719448 54:0.006168403662741184 55:0.00953447725623846 56:0.08113893866539001 70:0.058936040848493576 74:0.08197072148323059 78:0.06383075565099716 89:0.06558477133512497 95:0.14866161346435547 97:0.16927208006381989 98:0.02752234786748886
-17.23601242542508 12:0.15292246639728546 14:0.13198912143707275 17:0.03093395009636879 24:0.045834172517061234 26:0.01903999038040638 30:3.997115127276629E-4 38:0.019671281799674034 46:0.08145196735858917 55:0.05413318797945976 59:0.13010607659816742 60:0.026882778853178024 61:0.09823764860630035 90:0.06866905838251114 93:0.008151142857968807 98:0.13157743215560913
-17.23601242542508 17:0.007701042573899031 18:0.08628001064062119 26:0.0463276170194149 29:0.12585565447807312 34:0.10114608705043793 49:0.06453656405210495 51:0.0069724819622933865 56:0.12830692529678345 68:0.15057438611984253 70:0.005153521429747343 86:0.11886733770370483 94:0.15827836096286774
17.23601242542508 10:0.007890729233622551 20:0.06277317553758621 22:0.19830702245235443 39:0.042592428624629974 42:0.08355245739221573 43:0.004737203475087881 48:0.19545748829841614 57:0.27811485528945923 63:0.06693381071090698 78:0.016855938360095024 79:0.014779225923120975 98:0.028005657717585564
10.764065490062125 25:0.31071966886520386 30:0.008088850416243076 33:0.06881853938102722 54:0.04859503358602524 57:0.09056985378265381 61:0.12992297112941742 64:0.044987164437770844 66:0.011353632435202599 70:0.07279454916715622 71:0.214133158326149 77:1.658476139709819E-5
17.23601242542508 1:0.001964953960850835 2:0.003195364261046052 3:0.016974028199911118 4:0.02208145149052143 5:0.018254563212394714 6:2.57419073022902E-4 7:0.0016630759928375483 8:0.014337216503918171 9:3.120333713013679E-4 10:0.019852308556437492 11:0.009505444206297398 12:5.024147103540599E-4 13:0.013042828999459743 14:0.012476407922804356 15:0.024772193282842636 16:0.004559041000902653 17:1.3867256348021328E-4 18:0.015833407640457153 19:0.001598083646968007 20:0.012885009869933128 21:0.004451295826584101 22:0.005691248923540115 23:0.02089168317615986 24:0.01790822297334671 25:2.4183803179766983E-4 26:0.010794221423566341 27:0.0011768449330702424 28:8.633356192149222E-4 29:0.0024176007136702538 30:0.00512357335537672 31:0.027637211605906487 32:0.004560156259685755 33:0.021885262802243233 34:0.008337242528796196 35:2.3359805823019997E-7 36:0.018664615228772163 37:0.004663716536015272 38:0.027310499921441078 39:4.70940547529608E-4 40:0.005336282774806023 41:0.011055225506424904 42:9.545501670800149E-4 43:0.002048347145318985 44:0.01011213194578886 45:0.019906532019376755 46:0.021509362384676933 47:0.011285612359642982 48:1.5359224926214665E-4 49:8.356139878742397E-4 50:0.008200306445360184 51:0.002382096601650119 52:0.003317711642012 53:0.012109347619116306 54:7.5184930210525636E-6 55:1.633725878491532E-5 56:0.017790131270885468 57:0.002395408693701029 58:0.022154659032821655 59:0.001930887927301228 60:4.086867920705117E-5 61:0.002071911934763193 62:0.0046780165284872055 63:0.00785784050822258 64:0.017688695341348648 65:0.022497564554214478 66:0.00383791234344244 67:0.02265193685889244 68:0.02450413815677166 69:0.0024855162482708693 70:0.02548747882246971 71:0.014214587397873402 72:0.018698083236813545 73:0.006842881441116333 74:0.021088112145662308 75:4.740371077787131E-4 76:3.664862015284598E-4 77:0.005551567301154137 78:0.025147296488285065 79:0.0018717776983976364 80:0.02625187113881111 81:0.0012481117155402899 82:0.00208048103377223 83:0.01413137186318636 84:4.8013494233600795E-4 85:0.013575876131653786 86:0.01756582036614418 87:0.02883600816130638 88:0.01811833679676056 89:0.0026579739060252905 90:0.02326032519340515 91:0.006404809653759003 92:0.023020336404442787 93:0.011319276876747608 94:0.010477518662810326 95:0.009352067485451698 96:0.006474529393017292 97:0.009639397263526917 98:0.003961594775319099 99:0.012290134094655514
17.23601242542508 1:0.009726298041641712 2:0.025216298177838326 3:0.01998058520257473 4:0.006719668861478567 5:0.016101133078336716 6:0.0179069135338068 7:2.035956822510343E-5 8:0.018204933032393456 9:0.013921587727963924 10:0.003708901582285762 11:0.02881116420030594 12:0.00377747043967247 13:1.530070003354922E-4 14:1.316940615652129E-4 15:0.011896510608494282 16:0.028639914467930794 17:0.001858923234976828 18:0.021151918917894363 19:0.014567446894943714 20:5.966783501207829E-4 21:0.005241256672888994 23:0.017179301008582115 24:0.01912103034555912 25:0.019890645518898964 26:0.005225128028541803 27:2.1165647922316566E-5 28:0.007689880672842264 29:0.014398341067135334 30:2.565047179814428E-4 31:3.142339119222015E-4 32:0.003450642339885235 33:0.01723277010023594 34:0.02136644348502159 35:0.014782351441681385 36:0.014776607044041157 37:0.0015077777206897736 38:0.007548544090241194 39:0.00581739516928792 40:0.02429225482046604 41:0.004398244433104992 42:3.5501830097928178E-6 43:0.021464930847287178 44:3.4273217897862196E-4 45:0.0011440091766417027 46:6.693434552289546E-4 47:0.005435192957520485 48:3.273787297075614E-5 49:1.848531246650964E-5 50:0.001691710320301354 51:0.029547052457928658 52:0.008284228853881359 53:0.0037675134371966124 54:0.02360575832426548 55:0.003934992011636496 56:0.00748231029137969 57:0.022884363308548927 58:0.028834765776991844 59:0.001335137989372015 60:0.0024735748302191496 61:0.0018660294590517879 62:0.027797352522611618 63:0.028762053698301315 64:3.9169006049633026E-4 65:0.012326300144195557 66:0.009328100830316544 67:9.570132242515683E-4 69:0.01942407712340355 70:0.005040486343204975 72:0.0271274596452713 73:0.005018906202167273 74:0.00889973621815443 75:1.2013980267511215E-5 76:9.298084187321365E-4 77:1.7197549459524453E-4 78:0.005562583450227976 79:0.01601460762321949 80:0.02966826967895031 81:0.0022204990964382887 82:0.0035859686322510242 83:0.004094038624316454 84:0.0035945638082921505 85:0.0011901846155524254 86:0.0018638580804690719 87:1.9574386533349752E-4 88:0.007879829034209251 89:0.014888929203152657 90:0.027964504435658455 91:0.002520437352359295 92:0.0276376623660326 93:0.0025817756541073322 94:1.5013592201285064E-4 95:0.01654481142759323 96:0.0032693741377443075 97:0.025974690914154053 98:0.014846504665911198 99:0.029143715277314186
-17.23601242542508 23:0.0021806994918733835 25:0.2555380165576935 33:0.00714392913505435 65:0.2878899872303009 66:0.44724738597869873
-17.23601242542508 1:0.024746911600232124 11:0.06259521096944809 14:0.004326395690441132 15:0.02658083848655224 22:0.07142242044210434 28:3.658000205177814E-4 30:0.05218919739127159 34:0.06205528974533081 37:0.022513067349791527 43:0.03951152786612511 46:0.05678630992770195 48:0.04872485622763634 51:0.033524271100759506 56:0.08584138005971909 57:0.07866553962230682 58:0.01214068103581667 64:0.06107458099722862 67:0.009478315711021423 69:0.03559873625636101 72:0.06091012433171272 81:0.0046099270693957806 82:0.01940794102847576 95:0.04222821816802025 97:0.08470246195793152
-17.23601242542508 9:0.18522442877292633 11:0.13968460261821747 30:0.21171383559703827 35:2.485656295903027E-6 36:0.1306128352880478 49:0.10670517385005951 60:0.08019299805164337 68:0.06489966064691544 80:1.8339799012778712E-8 95:0.08095654845237732 96:7.4121439865848515E-6
17.23601242542508 1:0.0264438446611166 5:0.23764492571353912 15:0.1887068748474121 25:0.10783417522907257 35:0.04748009517788887 45:0.09391307085752487 47:0.08378511667251587 89:0.08906175196170807 90:0.12513014674186707
-17.23601242542508 2:0.12936601042747498 3:0.05380178615450859 5:0.13541428744792938 6:0.19565920531749725 12:0.01952839270234108 14:0.11381477117538452 18:0.04240863397717476 26:0.09175268560647964 44:0.03534214198589325 48:0.0025835514534264803 58:0.014188540168106556 68:0.052272070199251175 91:0.11386793106794357
17.23601242542508 19:0.15810562670230865 25:0.07407905161380768 48:0.2870926260948181 50:0.3323940932750702 65:0.011347941122949123 98:0.13698069751262665
-17.23601242542508 1:0.1599275767803192 2:0.15088117122650146 20:0.08981309086084366 22:3.7604651879519224E-5 34:0.04390513896942139 42:0.08213748037815094 46:0.08150364458560944 50:0.01755349710583687 57:0.005664946977049112 61:6.9269240157154854E-6 65:0.07085233181715012 67:0.02505681850016117 69:0.12702244520187378 74:0.06201278045773506 75:0.03868287801742554 82:5.5541342590004206E-5 85:0.04488612338900566
-17.23601242542508 2:0.054099079221487045 3:0.030078087002038956 6:0.03906533122062683 9:6.739284726791084E-4 11:0.022522110491991043 12:7.575674680992961E-4 16:0.019038790836930275 22:0.024399496614933014 24:0.03463065251708031 26:0.021947812288999557 27:0.05518864840269089 28:0.0061155762523412704 30:0.0034394608810544014 32:0.010397199541330338 37:0.011840625666081905 38:0.023035138845443726 41:0.0036250276025384665 42:0.00994066707789898 43:0.027161838486790657 48:0.00203651818446815 50:0.026707006618380547 51:0.017132027074694633 52:0.01772780902683735 55:0.007400324568152428 58:0.013223798014223576 62:0.032394442707300186 63:0.014396458864212036 64:9.109106613323092E-4 65:0.0021523775067180395 68:0.05005455017089844 69:0.05052646994590759 72:0.05407276004552841 76:0.0021037037950009108 77:2.606173511594534E-4 80:0.01411736011505127 82:0.035991035401821136 85:0.04084433987736702 87:0.03318142145872116 88:0.007452883757650852 89:0.007048335857689381 90:0.052978307008743286 93:0.053303055465221405 94:4.931800067424774E-4 96:0.0024850773625075817 97:0.05008523538708687 99:0.012962955050170422
-17.23601242542508 1:0.03236578404903412 2:9.626767132431269E-4 3:0.024980928748846054 7:0.03279593959450722 8:0.03502529859542847 9:0.08679758012294769 10:0.0011921800905838609 11:0.0036115527618676424 12:3.99516720790416E-4 16:0.056468941271305084 21:0.05448145791888237 23:0.01174473948776722 26:0.009026960469782352 27:0.0016169053269550204 29:0.001873256522230804 32:0.052269477397203445 36:1.6405145288445055E-4 37:0.0011201634770259261 38:0.034252867102622986 45:0.04633818194270134 48:0.029608525335788727 50:5.68522431422025E-4 52:0.031716469675302505 55:0.003007181454449892 58:0.027746839448809624 63:8.047209121286869E-5 66:0.014011927880346775 67:0.026647083461284637 71:0.08739869296550751 72:0.007050799205899239 78:0.0328245535492897 79:0.0061227730475366116 80:0.014616407454013824 81:0.00964005570858717 84:0.0068488637916743755 86:0.0280439555644989 89:0.025712233036756516 90:0.007202601060271263 91:0.08039907366037369 94:0.06272833794355392 96:0.010536168701946735
-17.23601242542508 2:0.0010387502843514085 8:0.004309810232371092 9:0.013525912538170815 12:0.07070337980985641 19:0.0013869995018467307 28:0.03300298750400543 38:0.034697066992521286 40:0.04267873615026474 42:0.09496484696865082 46:0.0029075827915221453 48:5.863357800990343E-4 49:0.007229161448776722 53:0.06977896392345428 55:0.10308223962783813 63:0.05543440207839012 70:0.050212569534778595 74:0.076680488884449 80:0.09298598766326904 85:0.02511468157172203 88:0.11240440607070923 91:0.006354932673275471 94:0.08923573791980743 95:0.011684024706482887
17.23601242542508 6:0.0034043972846120596 8:0.08650018274784088 9:8.934084326028824E-4 10:0.08074638992547989 11:0.05829654261469841 15:0.020852403715252876 18:0.006978684104979038 24:0.022065557539463043 25:0.07721619307994843 26:2.6896726922132075E-4 28:0.07356084883213043 31:7.11541943019256E-5 32:0.018258066847920418 39:0.017761878669261932 41:0.0014639993896707892 43:0.010619567707180977 44:0.0010061757639050484 45:1.6496405805810355E-6 46:7.928178529255092E-4 48:0.0038823792710900307 51:0.002941942075267434 56:0.0020887821447104216 59:0.012309211306273937 60:0.0883718952536583 67:0.034490279853343964 68:0.018215486779808998 78:0.009664548560976982 81:0.0010748736094683409 82:0.06810849905014038 83:0.0013171577593311667 84:0.006542570888996124 86:0.07972107082605362 87:0.006413379684090614 88:0.013235571794211864 91:0.015932578593492508 93:1.3709443737752736E-4 94:0.02025417611002922 95:0.03442462906241417 96:0.09227102249860764 97:0.007843964733183384
10.909369682410746 6:0.3348037600517273 30:0.15893588960170746 39:0.506260335445404
17.23601242542508 5:0.12432205677032471 13:9.661093936301768E-4 20:0.04989784210920334 21:0.1255492866039276 23:0.001483598374761641 31:0.02206973358988762 34:0.03934229165315628 36:0.044728416949510574 40:0.11482500284910202 42:0.016471263021230698 46:0.07641560584306717 51:0.015089892782270908 63:0.001382532180286944 66:0.02569516934454441 67:0.008408592082560062 68:0.0020580452401190996 69:0.09264910221099854 78:9.146974662144203E-7 86:0.04382716491818428 88:0.034826043993234634 93:0.03989475592970848 94:0.07861629128456116 95:0.03350925073027611 98:0.007971030659973621
-17.23601242542508 1:0.08825837075710297 4:0.13264533877372742 9:0.0345333069562912 10:0.12357659637928009 14:0.06114419177174568 19:0.01295721996575594 20:0.012906303629279137 33:0.042590100318193436 34:0.08954408764839172 35:0.014648497104644775 43:0.0012770738685503602 45:5.549801280722022E-4 58:0.07397092878818512 61:0.06939470767974854 63:0.005133078433573246 64:0.019740067422389984 72:0.03804878890514374 73:0.06438492238521576 74:0.005194519646465778 79:0.009253853932023048 85:0.02788359299302101 93:8.694236748851836E-5 94:0.010483435355126858 96:0.06178910657763481
-17.23601242542508 51:0.20260922610759735 57:0.7973907589912415
-17.23601242542508 7:0.12774349749088287 13:0.00262261345051229 17:0.08769748359918594 22:0.0010788844665512443 26:0.06794826686382294 31:0.012293932028114796 32:0.04090584069490433 33:0.04804333671927452 35:0.04602101817727089 43:0.09992403537034988 50:0.01976275071501732 52:0.05695466324687004 56:0.0011140565620735288 57:0.056372661143541336 67:0.09515231847763062 68:0.10736558586359024 76:0.001996047794818878 78:0.0017151923384517431 92:0.0037926260847598314 94:0.12145785242319107 95:3.733514677151106E-5
17.23601242542508 1:0.01976107992231846 3:0.03324413672089577 4:0.008237252943217754 5:0.012395083904266357 6:0.033697664737701416 7:0.003658232744783163 8:0.04640871286392212 9:0.008621115237474442 10:0.037520088255405426 11:0.0023791498970240355 12:0.008104496635496616 13:0.005484398920089006 14:6.431010115193203E-5 15:0.02456597238779068 16:0.003750075586140156 19:0.002267656149342656 20:0.0015695139300078154 21:0.007128685247153044 22:5.719213731936179E-5 23:1.5730182349216193E-4 24:7.813818228896707E-6 25:0.030003312975168228 27:0.03840300440788269 28:0.015171118080615997 29:0.00698409928008914 30:0.011593219824135303 31:0.007029652129858732 32:0.019071150571107864 33:0.00714678131043911 34:0.00993453897535801 35:0.03149060904979706 36:0.0046540540643036366 38:0.016117092221975327 41:0.011495412327349186 42:2.6624853489920497E-5 43:0.014380676671862602 44:0.011848523281514645 45:0.005423855036497116 46:0.03415386751294136 47:0.007261521648615599 48:0.009790453128516674 49:1.0773826943477616E-4 50:0.014316787011921406 51:0.03878379985690117 52:1.7420081712771207E-4 53:1.1318608812871389E-5 55:3.968987730331719E-4 56:0.0011673157569020987 57:4.3558445759117603E-4 58:0.032460059970617294 60:0.00298347813077271 63:0.030517801642417908 64:0.0011282939231023192 65:0.015577209182083607 67:0.03382287919521332 68:0.0032603538129478693 70:0.022577578201889992 71:0.005445178132504225 72:0.013729767873883247 73:3.1750946618558373E-6 74:8.633729885332286E-4 75:0.008792574517428875 76:0.0016708559123799205 77:0.0030157403089106083 78:0.03664643317461014 81:0.005341168958693743 82:4.468033730518073E-4 83:0.032135970890522 84:0.0027922310400754213 85:0.00680556008592248 86:0.004796309862285852 87:0.0011260679457336664 88:0.004595295060425997 90:5.209405208006501E-4 91:0.01561725977808237 92:0.009705271571874619 93:0.0044577522203326225 94:0.03232428431510925 96:0.0053874109871685505 97:0.036121778190135956 98:0.01672043651342392 99:0.0021575624123215675
17.23601242542508 2:0.01107991486787796 8:0.08434593677520752 21:0.045789144933223724 32:0.003740830346941948 44:0.0056292032822966576 49:0.25328153371810913 57:0.10292582958936691 59:0.010118444450199604 68:0.003281251760199666 80:0.015650400891900063 89:0.2173793464899063 92:0.24677817523479462
17.23601242542508 9:0.0976995900273323 12:0.06358744204044342 16:0.07245460897684097 21:0.0016158048529177904 44:0.12863470613956451 46:0.05239356309175491 47:0.07350786030292511 63:4.3405903852544725E-4 66:0.09275885671377182 67:0.018018824979662895 68:0.0011127862380817533 74:0.03309768810868263 79:0.08836689591407776 81:0.13358740508556366 93:0.13787664473056793 97:0.004853262100368738
17.23601242542508 16:0.0010624772403389215 20:0.044052813202142715 36:0.25136810541152954 73:0.31313520669937134 77:0.005816842429339886 89:0.20749986171722412 93:0.1770647019147873
17.23601242542508 4:0.006255979184061289 5:0.021309709176421165 6:1.5540151798631996E-4 10:0.08449067920446396 22:0.03508108854293823 26:0.1104675903916359 29:0.022452279925346375 31:0.0016737674595788121 36:0.002280354732647538 37:0.07544015347957611 44:4.474404559005052E-4 45:0.012455074116587639 51:0.05639820545911789 52:0.008598573505878448 56:0.03312314674258232 58:0.04235514998435974 61:0.10341000556945801 63:0.09232506155967712 65:0.01424327027052641 67:0.04370623081922531 72:2.77259066933766E-4 77:0.002267343457788229 79:0.028729189187288284 81:3.3250745036639273E-4 82:0.0014078556559979916 84:1.550018205307424E-4 87:0.06574147194623947 90:0.0076011535711586475 92:0.004896426573395729 94:6.513651896966621E-5 98:0.11685695499181747 99:0.005000537261366844
-5.229682181307372 10:0.03299297019839287 15:0.0216438677161932 34:0.0035444858949631453 35:0.04705588519573212 38:0.0164777971804142 69:0.005720322951674461 76:0.03515898436307907 79:0.46771615743637085 93:0.36349236965179443 98:0.006197161041200161
-17.23601242542508 1:3.335188921482768E-6 2:0.023071711882948875 6:0.05551174655556679 8:0.0077661010436713696 10:0.040213070809841156 11:0.056484904140233994 13:0.06056157499551773 15:0.017376508563756943 16:7.626640144735575E-4 17:0.010074887424707413 18:0.0028583325911313295 23:0.005847583524882793 26:0.07141701877117157 28:0.0010969456052407622 30:0.024154728278517723 31:1.3559983926825225E-4 32:0.062127549201250076 35:0.028005871921777725 37:0.008044518530368805 48:0.027257204055786133 51:0.05064501240849495 52:0.027855316177010536 58:0.06666882336139679 60:0.005053989123553038 67:4.6491072680510115E-7 69:0.019902262836694717 71:0.025768479332327843 72:0.05983709171414375 74:2.2338872076943517E-4 75:0.006611422635614872 77:0.048790670931339264 79:0.015297562815248966 81:0.020644675940275192 83:0.02244219370186329 87:0.02945898100733757 90:0.012538696639239788 93:0.047720059752464294 94:0.03776906058192253
17.23601242542508 5:0.012545548379421234 8:0.008311559446156025 16:0.03152335062623024 17:0.0020375335589051247 31:0.0019166115671396255 33:0.06316877901554108 36:0.0874260812997818 38:0.03788527473807335 43:0.13993394374847412 44:0.10814432799816132 53:0.06262709945440292 62:0.12812066078186035 79:0.014100437983870506 87:0.0873526856303215 89:0.04335493966937065 91:0.03649316355586052 98:0.1350579857826233
17.23601242542508 3:0.10196802765130997 6:0.05540936812758446 18:0.017549313604831696 20:0.021416746079921722 21:0.012626612558960915 23:0.023714683949947357 36:0.002533773658797145 42:0.01606122963130474 43:0.08187443763017654 44:0.08974084258079529 52:0.05794509872794151 64:0.04135913774371147 66:0.06262324750423431 67:0.006772203836590052 68:0.04063303768634796 71:0.03585168346762657 73:0.00821580272167921 74:0.00417721550911665 80:0.026200931519269943 83:0.013445498421788216 84:0.05659152567386627 85:0.03944164142012596 87:7.732782396487892E-4 88:0.02527841553092003 92:0.07859554886817932 94:8.399724611081183E-4 95:0.02185208722949028 97:0.056508634239435196
17.23601242542508 3:0.1485414206981659 6:0.0032899542711675167 7:0.11470789462327957 14:0.064085952937603 17:0.017944930121302605 19:0.0439879484474659 22:3.3205762156285346E-4 28:0.005906505044549704 31:0.010019468143582344 48:0.009415838867425919 50:0.06989939510822296 56:0.007834977470338345 57:0.11328709870576859 58:0.0022936942987143993 63:0.13824354112148285 71:0.08250744640827179 72:0.0017486459109932184 86:0.1577678769826889 97:0.008185350336134434
17.23601242542508 9:0.03562092036008835 10:0.09709031879901886 11:0.032360177487134933 18:0.03745780140161514 27:0.005875488743185997 34:0.007652237545698881 35:0.019277464598417282 38:0.10366620123386383 44:0.0753563717007637 47:0.0017313302960246801 53:0.08624326437711716 57:4.008175528724678E-5 58:1.3357767602428794E-4 59:0.07574468851089478 62:0.09477793425321579 66:0.10133284330368042 70:0.005377429537475109 73:4.168543091509491E-5 79:0.06100889667868614 83:0.025749608874320984 85:2.6774604339152575E-4 87:0.12998926639556885 89:9.446420153835788E-5 99:0.0031101973727345467
17.23601242542508 2:0.08555841445922852 3:0.07203029096126556 12:0.010656028985977173 14:0.06834547966718674 28:0.039325837045907974 29:0.1452707201242447 31:0.002119335811585188 38:0.13277214765548706 39:0.006256778258830309 43:0.0042638457380235195 49:0.004493023734539747 54:0.04890383407473564 58:0.09083421528339386 60:0.04738856479525566 68:0.09755223244428635 78:0.13930252194404602 80:0.0026995728258043528 85:0.0022271580528467894
-17.23601242542508 20:0.04022825136780739 22:0.19727730751037598 44:0.055705342441797256 48:0.05941133573651314 54:0.22664505243301392 59:0.2594772279262543 75:0.09122305363416672 96:0.03207488730549812 98:0.03795754909515381
-17.23601242542508 1:0.005855028051882982 3:0.1739577353000641 8:0.00708912406116724 9:0.04702950641512871 11:4.3449958297969715E-7 14:0.14749465882778168 19:0.044429074972867966 22:0.012880541384220123 38:0.16658462584018707 62:0.1463681012392044 82:0.17093431949615479 84:0.03248055279254913 85:0.04489630088210106
-17.23601242542508 9:0.03737485036253929 10:0.07867163419723511 16:0.0948859229683876 45:0.06988384574651718 59:0.09644096344709396 62:0.1634373664855957 69:0.1857573688030243 82:0.1616530567407608 94:0.032453302294015884 98:0.07944170385599136
17.23601242542508 18:0.26944178342819214 22:0.017605358734726906 31:0.008369938470423222 47:0.00506999809294939 52:0.011787990108132362 54:0.004405972547829151 60:0.0015734130283817649 73:0.3575178384780884 74:0.10136018693447113 79:0.21132990717887878 96:0.011537615209817886
2.4429376004311867 22:0.2801770865917206 56:0.039005134254693985 61:0.09578608721494675 70:0.14766179025173187 74:0.0758991464972496 81:0.22724471986293793 85:0.011230523698031902 93:0.08162331581115723 98:0.04137219488620758
17.23601242542508 22:0.16446363925933838 28:0.00515116797760129 40:0.5069941878318787 53:0.026619302108883858 77:0.29253026843070984 88:0.004241439048200846
-17.23601242542508 2:0.004962587263435125 9:0.1443619728088379 13:3.8158075767569244E-4 22:0.002704292070120573 32:0.2755966782569885 40:0.10911969840526581 43:0.05654336139559746 45:0.020605800673365593 53:0.004103223793208599 56:1.019886985886842E-4 67:0.12092402577400208 73:0.1572265923023224 77:0.04030618444085121 83:0.06306198984384537
17.23601242542508 1:0.030934488400816917 8:0.1943494975566864 20:0.01791435107588768 24:0.01643543876707554 37:0.10511590540409088 45:0.03395527973771095 54:0.20047490298748016 58:0.11476552486419678 75:1.8359001842327416E-4 81:0.0031653076875954866 84:1.5419036208186299E-4 86:0.04800131544470787 87:0.1659008115530014 90:0.06864939630031586
17.23601242542508 24:0.003023515921086073 30:1.2814390356652439E-4 54:0.3044184446334839 58:0.09099866449832916 72:0.1732112020254135 74:0.08656108379364014 78:0.0051300013437867165 97:0.006399179343134165 98:0.3301297724246979
-5.623421825827705 19:0.2758766710758209 30:0.22346454858779907 71:0.05460313335061073 98:0.44605565071105957
-17.23601242542508 1:0.06903336942195892 5:0.13242129981517792 11:0.005830768961459398 18:0.11558108031749725 26:0.04511342570185661 28:0.06916283816099167 29:0.1374068409204483 37:0.005538958590477705 46:0.11040549725294113 50:0.05710241198539734 51:0.10496370494365692 53:0.0023910237941890955 72:0.03749720752239227 73:8.919198880903423E-4 81:0.021824808791279793 88:0.01868070289492607 93:0.011905529536306858 95:0.0542486198246479
-17.23601242542508 2:0.0610378161072731 6:0.0072977058589458466 7:0.023900343105196953 8:0.05101315677165985 9:0.06503257900476456 10:0.011799423955380917 12:0.0054046171717345715 13:0.006430598441511393 14:1.8120999448001385E-4 15:0.006697976030409336 18:0.05447695776820183 19:0.031407102942466736 20:0.02872859314084053 24:0.03311232477426529 26:0.009929104708135128 29:0.017223946750164032 30:0.0012544203782454133 35:0.0014555935049429536 38:0.02636127918958664 39:0.0496894009411335 40:0.0686415508389473 43:0.007932007312774658 45:0.001893267733976245 46:0.005113737657666206 50:0.0029924612026661634 53:0.02698245830833912 54:0.04300748556852341 66:0.02783801220357418 67:0.06164424493908882 68:0.011940465308725834 70:0.0573066882789135 71:0.03427615389227867 74:0.01133167464286089 78:0.014530757442116737 80:0.04663247987627983 82:0.015415697358548641 83:0.05541886016726494 86:0.0052915941923856735 92:0.003664219519123435 98:0.005712030455470085
-10.143802154448492 38:0.6791999936103821 90:0.3208000361919403
-17.23601242542508 3:0.015998555347323418 6:0.04677300155162811 7:0.014694982208311558 10:0.07035819441080093 11:0.019748665392398834 12:0.06054874509572983 13:0.021107302978634834 15:0.016545122489333153 17:0.03254161775112152 22:0.02148064225912094 33:0.0627204105257988 36:0.013179007917642593 37:0.04452669993042946 39:0.00835882406681776 42:0.014916354790329933 44:0.008022366091609001 47:0.08693382143974304 50:3.866066981572658E-5 51:0.020929355174303055 52:5.74717007111758E-4 54:0.013695843517780304 55:0.01682688295841217 56:0.010156616568565369 57:0.06795006990432739 59:0.008742591366171837 61:0.03608453646302223 65:1.840051991166547E-4 71:0.001101398142054677 72:0.042737364768981934 75:0.00497016916051507 79:0.03764249384403229 85:5.311557906679809E-4 86:0.043931473046541214 88:0.07664554566144943 89:0.0025175469927489758 90:1.1248987721046433E-4 91:0.0016239971155300736 92:0.0068399859592318535 93:0.007530780974775553 94:7.926980033516884E-4 95:0.03651450574398041 97:0.002870798110961914
-8.853203324107968 14:0.0062773143872618675 19:0.028821339830756187 29:0.06932131946086884 40:0.11451801657676697 50:0.24290670454502106 78:0.28346702456474304 90:0.2546882927417755
-17.23601242542508 11:0.1849672496318817 12:0.010486042127013206 13:0.193430095911026 18:0.07904205471277237 30:0.10291172564029694 31:0.007644365541636944 39:0.08912110328674316 44:0.03468334674835205 46:2.951994611066766E-5 54:0.0360008105635643 63:0.06919490545988083 64:0.10135072469711304 70:0.05620595067739487 78:0.003010260406881571 88:1.7207219570991583E-5 91:0.013366014696657658 93:0.006206883117556572 98:0.004078087396919727 99:0.008253663778305054
17.23601242542508 1:0.013849123381078243 2:0.016919424757361412 3:0.014486661180853844 4:0.02922629751265049 6:7.002095117059071E-6 8:0.02950954996049404 9:0.0012352301273494959 11:0.025239277631044388 12:0.026809386909008026 13:0.0021415401715785265 14:0.012271104380488396 16:0.039842452853918076 17:0.010020316578447819 18:0.0030193855054676533 19:0.0011736418819054961 20:0.022633202373981476 22:0.012752086855471134 24:0.022085443139076233 25:3.2002641819417477E-4 27:0.003879792522639036 28:0.03666992112994194 29:0.0011402516392990947 30:0.006579097826033831 31:0.006216371897608042 32:0.004902143031358719 33:5.845780251547694E-4 34:0.007830130867660046 35:0.005482829641550779 36:0.004296161234378815 37:0.03197310492396355 38:0.0074666570872068405 39:0.008333894424140453 40:0.024328790605068207 42:0.006092207506299019 44:0.003006013808771968 45:0.007311700377613306 46:0.030793605372309685 47:0.0012357364175841212 48:0.020575348287820816 49:0.013899912126362324 51:0.040503278374671936 52:2.666698128450662E-4 53:0.009064806625247002 55:0.008907259441912174 56:0.0017429837025702 57:0.015573439188301563 58:0.02063135616481304 59:0.017736872658133507 61:0.019855419173836708 62:0.013664725236594677 63:0.01363825611770153 65:0.0199800543487072 66:5.288467509672046E-4 67:0.0034755757078528404 69:0.00997655838727951 74:0.014754392206668854 75:0.032662294805049896 76:0.031192559748888016 77:0.033028166741132736 78:0.013788709416985512 79:0.003037338377907872 81:0.010912040248513222 82:0.023274488747119904 83:0.004217768087983131 84:0.013347134925425053 85:0.005511528346687555 87:3.8668137858621776E-4 88:0.0047971089370548725 89:0.009079582057893276 90:0.03339269757270813 91:9.115822613239288E-4 94:0.03826030716300011 96:0.008227585814893246 97:0.00516137108206749 99:0.002371162408962846
5.783809173864958 1:1.0
-17.23601242542508 15:0.0922117531299591 20:0.05775919184088707 33:0.11204461008310318 34:0.10410965979099274 56:0.032031577080488205 58:0.019106904044747353 71:0.035629354417324066 72:0.16338279843330383 74:0.13002146780490875 76:0.06366579234600067 86:0.12224937230348587 92:0.038602154701948166 95:0.029185352846980095
-17.23601242542508 1:0.0071800206787884235 9:0.04088525474071503 16:0.04037537798285484 19:0.008358710445463657 20:0.0017442776588723063 22:0.0640793964266777 26:0.017909742891788483 27:0.009353194385766983 28:0.009797976352274418 30:0.0701591745018959 32:0.02437615394592285 36:0.0034456318244338036 38:0.027518298476934433 40:0.011669325642287731 41:0.03227659687399864 45:0.0834067091345787 48:0.08658874779939651 51:0.007527584675699472 62:0.03020484745502472 71:0.03365815058350563 74:0.04389200732111931 77:0.06481890380382538 80:0.013859797269105911 81:0.09327884018421173 83:0.05495830252766609 89:0.11121237277984619 97:0.00746459886431694
-17.23601242542508 1:0.03623534366488457 2:0.004275232087820768 4:0.055068064481019974 5:0.0137782022356987 6:0.01719648949801922 7:0.008849355392158031 9:0.06420228630304337 10:0.0029542269185185432 16:0.005929409060627222 17:0.05217716470360756 18:0.024389753118157387 19:0.010610794648528099 21:1.432258756040028E-8 22:2.6077523943968117E-4 24:0.006430956535041332 25:6.426557083614171E-4 26:0.03161350637674332 27:4.721474851976382E-6 32:3.8623716682195663E-4 33:0.026952607557177544 36:0.05048395320773125 37:3.1702429987490177E-4 38:0.002215523272752762 42:0.04013470560312271 46:0.029279541224241257 49:0.037162646651268005 50:0.06070388853549957 51:0.013129957020282745 57:0.020479494705796242 59:0.014929741621017456 62:9.965836070477962E-4 64:0.008399663493037224 68:0.03552928939461708 70:0.021641243249177933 71:0.03901294618844986 72:0.0020955975633114576 74:0.030518269166350365 76:0.03063623234629631 77:2.6564893778413534E-4 78:0.025123953819274902 81:0.011903315782546997 86:0.060919325798749924 88:2.264335853396915E-5 89:0.009051586501300335 94:0.016512669622898102 95:0.012197102420032024 97:0.0016269247280433774 98:0.011904089711606503 99:0.050848644226789474
-17.23601242542508 1:0.0389021597802639 2:0.03565087914466858 4:0.016688432544469833 5:0.001431505661457777 6:0.044464822858572006 7:0.025723448023200035 10:1.5417719259858131E-4 13:0.05679602548480034 14:0.0021612232085317373 18:0.06724683940410614 19:0.02708311751484871 24:0.0379379503428936 29:0.008966981433331966 36:0.05579356476664543 37:0.0018950963858515024 39:0.023934440687298775 41:0.04747467488050461 45:0.0710267499089241 46:9.03939944691956E-4 50:0.016173604875802994 55:0.005834423471242189 56:0.0033500036224722862 57:1.43252284033224E-4 58:0.00788054522126913 60:0.0034989304840564728 61:0.023671487346291542 64:0.03383486345410347 65:0.02664797008037567 69:0.04662029445171356 71:0.0749916285276413 73:0.013979289680719376 78:0.0018294128822162747 79:0.006759032607078552 85:0.013681231066584587 86:0.0031148868147283792 87:0.03860298916697502 90:0.03298280015587807 92:0.012938792817294598 94:0.00963820330798626 97:0.04761944338679314 99:0.01197088323533535
-17.23601242542508 3:3.3195214928127825E-4 4:0.008083062246441841 7:0.03525879979133606 10:0.0061203003861010075 12:0.018049074336886406 13:7.191603654064238E-4 14:0.025857076048851013 15:4.169321327935904E-4 16:0.010157132521271706 17:0.0012157156597822905 18:0.0031321255955845118 19:0.014076660387217999 20:0.035057611763477325 21:0.016706716269254684 23:1.9574517500586808E-4 24:0.005128747783601284 25:7.01165699865669E-4 26:0.0018054142128676176 27:0.003278266405686736 29:0.004911189898848534 31:3.780564293265343E-5 34:2.993455855175853E-4 35:2.9612856451421976E-4 36:0.013896225020289421 37:0.001315017114393413 39:0.03241322562098503 40:0.006196490954607725 43:0.005956468638032675 44:0.027032341808080673 45:0.029185816645622253 46:2.249514654977247E-4 47:0.01887020841240883 48:7.018128962954506E-5 50:0.0038277392741292715 51:0.01542394608259201 52:0.02695910818874836 55:0.020100532099604607 56:0.005318688228726387 57:0.010183431208133698 58:0.014181902632117271 59:0.037433553487062454 60:0.034783750772476196 61:8.886698051355779E-4 62:0.002843256574124098 64:0.0012867257464677095 65:0.02083658240735531 66:0.01947173848748207 67:0.017436014488339424 68:0.003669191850349307 69:0.0210480447858572 70:0.03692382946610451 72:0.0131712406873703 73:9.410480852238834E-4 74:0.02451995387673378 75:0.0040647960267961025 76:0.00991711113601923 77:0.007284417282789946 78:0.03336511179804802 79:0.0034517080057412386 80:0.02766561508178711 81:0.022887438535690308 83:5.271958652883768E-4 85:0.034536171704530716 86:0.029696708545088768 88:0.003952547907829285 89:0.02068168856203556 90:0.03235355764627457 92:0.03324286639690399 94:0.008714946918189526 95:0.010129358619451523 97:0.02886057086288929 98:0.030422184616327286
-17.23601242542508 5:0.0337950773537159 8:0.0011843822430819273 10:1.2443751620594412E-4 12:0.004808666650205851 14:0.10079903900623322 19:0.00804851483553648 20:6.317978259176016E-4 28:0.00344630959443748 29:0.014386763796210289 36:0.002078935969620943 39:0.004057447891682386 40:0.004562665242701769 42:1.990053860936314E-4 43:0.027372941374778748 48:0.009409659542143345 50:0.025738365948200226 59:0.10337183624505997 62:0.038214415311813354 63:0.006027138791978359 64:0.10821593552827835 66:0.1353776752948761 67:0.048644933849573135 73:0.02702268958091736 77:0.03545982763171196 89:0.15134933590888977 90:0.023046530783176422 94:0.08262567967176437
-17.23601242542508 3:0.001814997405745089 7:0.051987260580062866 14:0.022454213351011276 16:0.014629271812736988 21:0.03265022858977318 24:0.07069505751132965 25:0.003985061775892973 30:5.107533070258796E-4 37:0.07637505978345871 39:0.07175247371196747 43:0.06481577455997467 47:0.0012961266329512 50:1.0272260988131166E-4 53:5.511075723916292E-4 59:0.08414125442504883 60:0.059803757816553116 65:0.0869278758764267 69:4.921356321574422E-6 70:0.0978190004825592 73:0.028417766094207764 78:0.08980002254247665 79:0.02940160408616066 80:0.06214969605207443 83:0.00748632475733757 86:0.027794519439339638 87:9.845624445006251E-4 90:4.0652661118656397E-4 97:0.011242059990763664
-17.23601242542508 3:2.9469234868884087E-4 6:0.040614284574985504 7:0.010454135946929455 8:0.02407141961157322 9:0.003246732521802187 10:0.010627961717545986 12:0.029974395409226418 13:0.012273287400603294 14:0.027443384751677513 16:8.96398036275059E-4 17:0.017723221331834793 18:0.009884524159133434 19:0.041525665670633316 20:0.0431455560028553 21:0.004759703762829304 22:0.026749832555651665 25:6.357940728776157E-4 26:0.0033211547415703535 27:0.004534169100224972 29:0.006513805594295263 30:0.026956021785736084 31:0.0064596752636134624 32:0.002347526140511036 33:8.355295285582542E-4 34:0.032773587852716446 38:0.00603223592042923 39:2.395739866187796E-4 41:7.415429572574794E-4 42:6.269438890740275E-4 43:0.017809849232435226 44:0.0014076796360313892 45:3.524480689520715E-7 46:0.04244966059923172 48:2.2554397583007812E-4 49:0.0062398118898272514 52:6.08569651376456E-4 54:1.2379350664559752E-4 55:0.002794653410091996 56:0.024553943425416946 60:0.006290964316576719 62:0.04651985689997673 63:0.041258566081523895 64:0.011551553383469582 65:0.017692813649773598 66:0.011527319438755512 67:0.042974602431058884 68:0.030130011960864067 69:0.01653454080224037 70:0.022626714780926704 71:0.03215593099594116 73:0.04110529646277428 74:0.0031201220117509365 77:3.769200702663511E-4 78:0.009224948473274708 80:0.007700307294726372 82:0.014103312976658344 84:0.00782619696110487 87:0.01212585624307394 88:0.04529273882508278 89:0.03923746943473816 90:0.0019563459791243076 92:0.004848739132285118 94:3.796154633164406E-4 96:0.00195123883895576 97:0.002484802156686783 98:0.037086598575115204
-17.23601242542508 1:0.02553429827094078 2:7.70056140027009E-5 3:0.035490211099386215 4:0.02385595813393593 5:0.013830242678523064 6:0.04434504732489586 7:0.018167834728956223 8:0.03836463391780853 10:0.011573180556297302 12:0.044395335018634796 13:0.03601863235235214 14:0.006223128642886877 16:0.017093073576688766 19:0.008001652546226978 20:2.3388998670270666E-5 23:0.004663678351789713 24:0.026477202773094177 25:0.02476700209081173 26:0.025251716375350952 27:0.0018398599931970239 28:0.0017325258813798428 31:0.003981363493949175 32:0.017588356509804726 34:6.920412997715175E-4 35:0.03828788921236992 36:0.0011550855124369264 37:0.0026206669863313437 39:0.004887886345386505 41:0.008896173909306526 42:0.014051802456378937 44:2.009522868320346E-4 45:0.016944333910942078 46:0.04853313788771629 47:9.947937360266224E-5 48:2.0966473675798625E-4 49:0.001135334256105125 50:0.025846431031823158 51:0.012603072449564934 52:0.01100882701575756 53:0.008768689818680286 55:0.022045083343982697 58:0.022671272978186607 59:0.004626675508916378 62:0.017936555668711662 64:6.163200014270842E-4 67:0.005151905119419098 68:0.035324577242136 71:0.027350861579179764 72:0.0018630500417202711 73:6.739809177815914E-4 74:0.0012199110351502895 75:0.0013873459538444877 76:4.508348647505045E-4 77:2.1238430053927004E-4 78:0.007731693331152201 79:0.005077584646642208 80:0.037803392857313156 82:0.005774886813014746 84:0.013697555288672447 86:0.009251687675714493 87:0.002918171463534236 88:0.0072459690272808075 89:5.090241756988689E-5 90:0.01280601229518652 91:0.0029445006512105465 92:0.01686880551278591 93:9.035864059114829E-5 94:0.029017334803938866 95:0.003102319547906518 96:0.03568247705698013 97:0.006376613397151232 98:0.03679218515753746
17.23601242542508 3:0.023687560111284256 5:0.006711537018418312 6:0.04085994139313698 7:0.015265719033777714 13:0.01781335286796093 14:0.01847122609615326 15:0.024125413969159126 17:0.021434510126709938 19:1.8909810751210898E-4 22:0.031344108283519745 23:0.0017013219185173512 24:0.03912724554538727 25:2.317186153959483E-4 26:0.028831811621785164 27:0.01255950890481472 28:0.006532001309096813 29:9.083027180167846E-6 30:0.026510844007134438 34:0.04411613941192627 35:0.02503557689487934 37:0.039178721606731415 38:0.019423585385084152 40:0.02346346154808998 46:6.676121120108292E-5 47:0.0022140233777463436 48:0.003999138250946999 49:0.006562147289514542 53:8.394223550567403E-5 54:0.012105911038815975 55:0.03365054726600647 57:0.006587646901607513 58:0.05086755380034447 60:0.028030702844262123 61:0.041226837784051895 63:0.025428134948015213 64:0.001041223993524909 65:0.005324238911271095 67:0.04909427464008331 68:0.009875127114355564 69:0.019716279581189156 70:0.011786224320530891 72:0.007297296077013016 73:8.583454764448106E-4 75:0.014325620606541634 79:0.021849101409316063 80:0.054179709404706955 81:0.0015969551168382168 82:0.013717151246964931 83:0.03334718570113182 84:3.422377922106534E-4 87:0.012767212465405464 90:0.003229477209970355 91:7.35332869226113E-5 92:0.01217462494969368 93:0.044565215706825256 99:0.005392140708863735
-17.23601242542508 1:5.47525065485388E-4 5:0.08921411633491516 9:0.06867115944623947 14:0.033228084444999695 16:0.02157696522772312 22:0.06137660890817642 26:6.217709742486477E-4 38:0.03379363566637039 39:6.331400363706052E-4 41:0.009577184915542603 43:0.006129062734544277 46:0.0564146414399147 48:0.06901770830154419 49:0.08159608393907547 50:0.09256815910339355 54:0.06895753741264343 55:1.656849344726652E-4 56:0.015688201412558556 58:0.0014518762473016977 67:0.005655949469655752 68:0.05624794214963913 69:0.001179147744551301 80:0.03379470109939575 82:0.0024905160535126925 88:0.1070275828242302 94:0.06325416266918182 95:0.010074387304484844 96:0.006999297998845577 98:0.002047158544883132
-17.23601242542508 1:0.005134365521371365 2:0.029232220724225044 3:1.1391145562811289E-5 4:0.01833682879805565 8:0.006529079284518957 9:0.014841340482234955 11:0.05629739537835121 12:0.048191096633672714 13:0.011644644662737846 14:0.01686437800526619 16:0.005361521150916815 19:0.010228807106614113 20:0.030192717909812927 22:0.05251609534025192 25:0.00340621592476964 27:0.007261922117322683 28:0.009466281160712242 29:0.005102822557091713 31:0.01580706052482128 32:0.002507168101146817 34:0.010582362301647663 36:0.01791481487452984 37:0.01005523931235075 38:0.010666053742170334 39:0.045787375420331955 40:0.04023021087050438 42:0.005648497957736254 43:0.0015150284161791205 44:0.045402612537145615 47:1.887432335934136E-5 48:0.0280729029327631 49:0.02201094664633274 51:0.005714342929422855 52:0.023108793422579765 53:0.01638122834265232 54:0.0030168055091053247 55:0.006148120854049921 56:0.04702506214380264 58:0.013252771459519863 62:1.1819344763353001E-5 65:0.016157381236553192 68:0.04380268231034279 72:0.02191162295639515 74:0.03348609060049057 75:0.006319520995020866 77:0.002118437085300684 79:0.0074629816226661205 85:0.030458664521574974 91:0.04137161746621132 94:0.056634388864040375 95:0.029903626069426537 98:0.008875768631696701
